{"learner":{"attributes":{"best_iteration":"929","best_score":"8.014528752178997","scikit_learn":"{\"_estimator_type\": \"regressor\"}"},"feature_names":["store","item","day_of_week","month","year","lag_1","lag_7","rolling_7_mean"],"feature_types":["c","c","int","int","int","float","float","float"],"gradient_booster":{"model":{"cats":{"enc":[{"type":15,"values":[1,2,3,4,5,6,7,8,9,10]},{"type":15,"values":[1,2,3,4,5,6,7,8,9,10,11,12,13,14,15,16,17,18,19,20,21,22,23,24,25,26,27,28,29,30,31,32,33,34,35,36,37,38,39,40,41,42,43,44,45,46,47,48,49,50]},{"offsets":[],"values":[]},{"offsets":[],"values":[]},{"offsets":[],"values":[]},{"offsets":[],"values":[]},{"offsets":[],"values":[]},{"offsets":[],"values":[]}],"feature_segments":[0,10,60,60,60,60,60,60,60],"sorted_idx":[0,1,2,3,4,5,6,7,8,9,0,1,2,3,4,5,6,7,8,9,10,11,12,13,14,15,16,17,18,19,20,21,22,23,24,25,26,27,28,29,30,31,32,33,34,35,36,37,38,39,40,41,42,43,44,45,46,47,48,49]},"gbtree_model_param":{"num_parallel_tree":"1","num_trees":"980"},"iteration_indptr":[0,1,2,3,4,5,6,7,8,9,10,11,12,13,14,15,16,17,18,19,20,21,22,23,24,25,26,27,28,29,30,31,32,33,34,35,36,37,38,39,40,41,42,43,44,45,46,47,48,49,50,51,52,53,54,55,56,57,58,59,60,61,62,63,64,65,66,67,68,69,70,71,72,73,74,75,76,77,78,79,80,81,82,83,84,85,86,87,88,89,90,91,92,93,94,95,96,97,98,99,100,101,102,103,104,105,106,107,108,109,110,111,112,113,114,115,116,117,118,119,120,121,122,123,124,125,126,127,128,129,130,131,132,133,134,135,136,137,138,139,140,141,142,143,144,145,146,147,148,149,150,151,152,153,154,155,156,157,158,159,160,161,162,163,164,165,166,167,168,169,170,171,172,173,174,175,176,177,178,179,180,181,182,183,184,185,186,187,188,189,190,191,192,193,194,195,196,197,198,199,200,201,202,203,204,205,206,207,208,209,210,211,212,213,214,215,216,217,218,219,220,221,222,223,224,225,226,227,228,229,230,231,232,233,234,235,236,237,238,239,240,241,242,243,244,245,246,247,248,249,250,251,252,253,254,255,256,257,258,259,260,261,262,263,264,265,266,267,268,269,270,271,272,273,274,275,276,277,278,279,280,281,282,283,284,285,286,287,288,289,290,291,292,293,294,295,296,297,298,299,300,301,302,303,304,305,306,307,308,309,310,311,312,313,314,315,316,317,318,319,320,321,322,323,324,325,326,327,328,329,330,331,332,333,334,335,336,337,338,339,340,341,342,343,344,345,346,347,348,349,350,351,352,353,354,355,356,357,358,359,360,361,362,363,364,365,366,367,368,369,370,371,372,373,374,375,376,377,378,379,380,381,382,383,384,385,386,387,388,389,390,391,392,393,394,395,396,397,398,399,400,401,402,403,404,405,406,407,408,409,410,411,412,413,414,415,416,417,418,419,420,421,422,423,424,425,426,427,428,429,430,431,432,433,434,435,436,437,438,439,440,441,442,443,444,445,446,447,448,449,450,451,452,453,454,455,456,457,458,459,460,461,462,463,464,465,466,467,468,469,470,471,472,473,474,475,476,477,478,479,480,481,482,483,484,485,486,487,488,489,490,491,492,493,494,495,496,497,498,499,500,501,502,503,504,505,506,507,508,509,510,511,512,513,514,515,516,517,518,519,520,521,522,523,524,525,526,527,528,529,530,531,532,533,534,535,536,537,538,539,540,541,542,543,544,545,546,547,548,549,550,551,552,553,554,555,556,557,558,559,560,561,562,563,564,565,566,567,568,569,570,571,572,573,574,575,576,577,578,579,580,581,582,583,584,585,586,587,588,589,590,591,592,593,594,595,596,597,598,599,600,601,602,603,604,605,606,607,608,609,610,611,612,613,614,615,616,617,618,619,620,621,622,623,624,625,626,627,628,629,630,631,632,633,634,635,636,637,638,639,640,641,642,643,644,645,646,647,648,649,650,651,652,653,654,655,656,657,658,659,660,661,662,663,664,665,666,667,668,669,670,671,672,673,674,675,676,677,678,679,680,681,682,683,684,685,686,687,688,689,690,691,692,693,694,695,696,697,698,699,700,701,702,703,704,705,706,707,708,709,710,711,712,713,714,715,716,717,718,719,720,721,722,723,724,725,726,727,728,729,730,731,732,733,734,735,736,737,738,739,740,741,742,743,744,745,746,747,748,749,750,751,752,753,754,755,756,757,758,759,760,761,762,763,764,765,766,767,768,769,770,771,772,773,774,775,776,777,778,779,780,781,782,783,784,785,786,787,788,789,790,791,792,793,794,795,796,797,798,799,800,801,802,803,804,805,806,807,808,809,810,811,812,813,814,815,816,817,818,819,820,821,822,823,824,825,826,827,828,829,830,831,832,833,834,835,836,837,838,839,840,841,842,843,844,845,846,847,848,849,850,851,852,853,854,855,856,857,858,859,860,861,862,863,864,865,866,867,868,869,870,871,872,873,874,875,876,877,878,879,880,881,882,883,884,885,886,887,888,889,890,891,892,893,894,895,896,897,898,899,900,901,902,903,904,905,906,907,908,909,910,911,912,913,914,915,916,917,918,919,920,921,922,923,924,925,926,927,928,929,930,931,932,933,934,935,936,937,938,939,940,941,942,943,944,945,946,947,948,949,950,951,952,953,954,955,956,957,958,959,960,961,962,963,964,965,966,967,968,969,970,971,972,973,974,975,976,977,978,979,980],"tree_info":[0,0,0,0,0,0,0,0,0,0,0,0,0,0,0,0,0,0,0,0,0,0,0,0,0,0,0,0,0,0,0,0,0,0,0,0,0,0,0,0,0,0,0,0,0,0,0,0,0,0,0,0,0,0,0,0,0,0,0,0,0,0,0,0,0,0,0,0,0,0,0,0,0,0,0,0,0,0,0,0,0,0,0,0,0,0,0,0,0,0,0,0,0,0,0,0,0,0,0,0,0,0,0,0,0,0,0,0,0,0,0,0,0,0,0,0,0,0,0,0,0,0,0,0,0,0,0,0,0,0,0,0,0,0,0,0,0,0,0,0,0,0,0,0,0,0,0,0,0,0,0,0,0,0,0,0,0,0,0,0,0,0,0,0,0,0,0,0,0,0,0,0,0,0,0,0,0,0,0,0,0,0,0,0,0,0,0,0,0,0,0,0,0,0,0,0,0,0,0,0,0,0,0,0,0,0,0,0,0,0,0,0,0,0,0,0,0,0,0,0,0,0,0,0,0,0,0,0,0,0,0,0,0,0,0,0,0,0,0,0,0,0,0,0,0,0,0,0,0,0,0,0,0,0,0,0,0,0,0,0,0,0,0,0,0,0,0,0,0,0,0,0,0,0,0,0,0,0,0,0,0,0,0,0,0,0,0,0,0,0,0,0,0,0,0,0,0,0,0,0,0,0,0,0,0,0,0,0,0,0,0,0,0,0,0,0,0,0,0,0,0,0,0,0,0,0,0,0,0,0,0,0,0,0,0,0,0,0,0,0,0,0,0,0,0,0,0,0,0,0,0,0,0,0,0,0,0,0,0,0,0,0,0,0,0,0,0,0,0,0,0,0,0,0,0,0,0,0,0,0,0,0,0,0,0,0,0,0,0,0,0,0,0,0,0,0,0,0,0,0,0,0,0,0,0,0,0,0,0,0,0,0,0,0,0,0,0,0,0,0,0,0,0,0,0,0,0,0,0,0,0,0,0,0,0,0,0,0,0,0,0,0,0,0,0,0,0,0,0,0,0,0,0,0,0,0,0,0,0,0,0,0,0,0,0,0,0,0,0,0,0,0,0,0,0,0,0,0,0,0,0,0,0,0,0,0,0,0,0,0,0,0,0,0,0,0,0,0,0,0,0,0,0,0,0,0,0,0,0,0,0,0,0,0,0,0,0,0,0,0,0,0,0,0,0,0,0,0,0,0,0,0,0,0,0,0,0,0,0,0,0,0,0,0,0,0,0,0,0,0,0,0,0,0,0,0,0,0,0,0,0,0,0,0,0,0,0,0,0,0,0,0,0,0,0,0,0,0,0,0,0,0,0,0,0,0,0,0,0,0,0,0,0,0,0,0,0,0,0,0,0,0,0,0,0,0,0,0,0,0,0,0,0,0,0,0,0,0,0,0,0,0,0,0,0,0,0,0,0,0,0,0,0,0,0,0,0,0,0,0,0,0,0,0,0,0,0,0,0,0,0,0,0,0,0,0,0,0,0,0,0,0,0,0,0,0,0,0,0,0,0,0,0,0,0,0,0,0,0,0,0,0,0,0,0,0,0,0,0,0,0,0,0,0,0,0,0,0,0,0,0,0,0,0,0,0,0,0,0,0,0,0,0,0,0,0,0,0,0,0,0,0,0,0,0,0,0,0,0,0,0,0,0,0,0,0,0,0,0,0,0,0,0,0,0,0,0,0,0,0,0,0,0,0,0,0,0,0,0,0,0,0,0,0,0,0,0,0,0,0,0,0,0,0,0,0,0,0,0,0,0,0,0,0,0,0,0,0,0,0,0,0,0,0,0,0,0,0,0,0,0,0,0,0,0,0,0,0,0,0,0,0,0,0,0,0,0,0,0,0,0,0,0,0,0,0,0,0,0,0,0,0,0,0,0,0,0,0,0,0,0,0,0,0,0,0,0,0,0,0,0,0,0,0,0,0,0,0,0,0,0,0,0,0,0,0,0,0,0,0,0,0,0,0,0,0,0,0,0,0,0,0,0,0,0,0,0,0,0,0,0,0,0,0,0,0,0,0,0,0,0,0,0,0,0,0,0,0,0,0,0,0,0,0,0,0,0,0,0,0,0,0,0,0,0,0,0,0,0,0,0,0,0,0,0,0,0,0,0,0,0,0,0,0,0,0,0,0,0,0,0,0,0,0,0,0,0,0,0,0,0,0,0,0,0,0,0,0,0,0,0,0,0,0,0,0,0,0,0,0],"trees":[{"base_weights":[1.0641851E-2,-1.6103468E1,2.833142E1,-2.6176556E1,-5.668226E0,1.7972948E1,5.0250546E1,-5.177022E0,-3.5450687E0,-1.8133883E0,9.762286E-3,1.9828061E0,4.2060184E0,6.977348E0,1.1005206E1],"categories":[],"categories_nodes":[],"categories_segments":[],"categories_sizes":[],"default_left":[0,0,0,0,0,0,0,0,0,0,0,0,0,0,0],"id":0,"left_children":[1,3,5,7,9,11,13,-1,-1,-1,-1,-1,-1,-1,-1],"loss_changes":[2.747746E8,4.033755E7,4.9574496E7,4.793488E6,5.8050705E6,6.68366E6,9.112544E6,0E0,0E0,0E0,0E0,0E0,0E0,0E0,0E0],"parents":[2147483647,0,0,1,1,2,2,3,3,4,4,5,5,6,6],"right_children":[2,4,6,8,10,12,14,-1,-1,-1,-1,-1,-1,-1,-1],"split_conditions":[5.7E1,3.4E1,8.7E1,2.3E1,4.5E1,7.1E1,1.1E2,-5.177022E0,-3.5450687E0,-1.8133883E0,9.762286E-3,1.9828061E0,4.2060184E0,6.977348E0,1.1005206E1],"split_indices":[6,6,6,6,6,6,6,0,0,0,0,0,0,0,0],"split_type":[0,0,0,0,0,0,0,0,0,0,0,0,0,0,0],"sum_hessian":[6.02093E5,3.83747E5,2.18346E5,1.95261E5,1.88486E5,1.48276E5,7.007E4,9.0036E4,1.05225E5,9.7218E4,9.1268E4,8.3721E4,6.4555E4,4.7933E4,2.2137E4],"tree_param":{"num_deleted":"0","num_feature":"8","num_nodes":"15","size_leaf_vector":"1"}},{"base_weights":[2.683373E-3,-1.359029E1,2.414819E1,-2.2074894E1,-4.0249953E0,1.679251E1,4.545085E1,-4.440865E0,-2.91048E0,-1.4025601E0,1.0268053E-1,1.8122519E0,3.9071388E0,6.2420206E0,9.547667E0],"categories":[],"categories_nodes":[],"categories_segments":[],"categories_sizes":[],"default_left":[0,0,0,0,0,0,0,0,0,0,0,0,0,0,0],"id":1,"left_children":[1,3,5,7,9,11,13,-1,-1,-1,-1,-1,-1,-1,-1],"loss_changes":[1.9775E8,3.1285728E7,3.4005E7,4.41712E6,3.8072662E6,6.502816E6,5.255952E6,0E0,0E0,0E0,0E0,0E0,0E0,0E0,0E0],"parents":[2147483647,0,0,1,1,2,2,3,3,4,4,5,5,6,6],"right_children":[2,4,6,8,10,12,14,-1,-1,-1,-1,-1,-1,-1,-1],"split_conditions":[5.7285713E1,3.5285713E1,9.2E1,2.4142857E1,4.5857143E1,7.157143E1,1.05E2,-4.440865E0,-2.91048E0,-1.4025601E0,1.0268053E-1,1.8122519E0,3.9071388E0,6.2420206E0,9.547667E0],"split_indices":[7,7,6,7,7,7,5,0,0,0,0,0,0,0,0],"split_type":[0,0,0,0,0,0,0,0,0,0,0,0,0,0,0],"sum_hessian":[6.0251E5,3.85493E5,2.17017E5,2.04286E5,1.81207E5,1.61317E5,5.57E4,9.5269E4,1.09017E5,9.1912E4,8.9295E4,8.8572E4,7.2745E4,3.5146E4,2.0554E4],"tree_param":{"num_deleted":"0","num_feature":"8","num_nodes":"15","size_leaf_vector":"1"}},{"base_weights":[2.281823E-2,-1.2070035E1,1.9070795E1,-1.9395891E1,-5.033266E0,1.1564823E1,3.4770645E1,-3.9777796E0,-2.7411447E0,-1.4876127E0,-1.9844018E-1,1.0524597E0,3.0230696E0,4.54981E0,7.2513933E0],"categories":[],"categories_nodes":[],"categories_segments":[],"categories_sizes":[],"default_left":[0,0,0,0,0,0,0,0,0,0,0,0,0,0,0],"id":2,"left_children":[1,3,5,7,9,11,13,-1,-1,-1,-1,-1,-1,-1,-1],"loss_changes":[1.3871867E8,1.8989148E7,2.7558288E7,2.354144E6,2.894326E6,5.58501E6,5.015776E6,0E0,0E0,0E0,0E0,0E0,0E0,0E0,0E0],"parents":[2147483647,0,0,1,1,2,2,3,3,4,4,5,5,6,6],"right_children":[2,4,6,8,10,12,14,-1,-1,-1,-1,-1,-1,-1,-1],"split_conditions":[5.5E1,3.2714287E1,8.342857E1,2.1E1,4.3E1,4E0,4E0,-3.9777796E0,-2.7411447E0,-1.4876127E0,-1.9844018E-1,1.0524597E0,3.0230696E0,4.54981E0,7.2513933E0],"split_indices":[7,7,7,7,7,2,2,0,0,0,0,0,0,0,0],"split_type":[0,0,0,0,0,0,0,0,0,0,0,0,0,0,0],"sum_hessian":[6.02221E5,3.68362E5,2.33859E5,1.80473E5,1.87889E5,1.58218E5,7.5641E4,6.468E4,1.15793E5,9.1513E4,9.6376E4,9.0277E4,6.7941E4,4.32E4,3.2441E4],"tree_param":{"num_deleted":"0","num_feature":"8","num_nodes":"15","size_leaf_vector":"1"}},{"base_weights":[-7.7570374E-3,-9.555516E0,1.5914129E1,-1.5390283E1,-3.3099945E0,1.0168015E1,2.7876678E1,-3.080705E0,-2.052235E0,-2.344414E0,-2.7510503E-1,-9.011551E-1,2.1548471E0,1.5520645E0,5.5784173E0],"categories":[],"categories_nodes":[],"categories_segments":[],"categories_sizes":[],"default_left":[0,0,0,0,0,0,0,0,0,0,0,0,0,0,0],"id":3,"left_children":[1,3,5,7,9,11,13,-1,-1,-1,-1,-1,-1,-1,-1],"loss_changes":[9.1526136E7,1.3715488E7,1.5513788E7,1.89738E6,3.259163E6,7.059098E6,8.231588E6,0E0,0E0,0E0,0E0,0E0,0E0,0E0,0E0],"parents":[2147483647,0,0,1,1,2,2,3,3,4,4,5,5,6,6],"right_children":[2,4,6,8,10,12,14,-1,-1,-1,-1,-1,-1,-1,-1],"split_conditions":[5.6E1,3.4E1,8.6E1,2.3E1,1E0,1E0,1E0,-3.080705E0,-2.052235E0,-2.344414E0,-2.7510503E-1,-9.011551E-1,2.1548471E0,1.5520645E0,5.5784173E0],"split_indices":[5,5,5,5,2,2,2,0,0,0,0,0,0,0,0],"split_type":[0,0,0,0,0,0,0,0,0,0,0,0,0,0,0],"sum_hessian":[6.02071E5,3.76374E5,2.25697E5,1.94585E5,1.81789E5,1.52464E5,7.3233E4,8.9772E4,1.04813E5,2.3571E4,1.58218E5,2.4221E4,1.28243E5,1.822E4,5.5013E4],"tree_param":{"num_deleted":"0","num_feature":"8","num_nodes":"15","size_leaf_vector":"1"}},{"base_weights":[6.2111686E-3,-7.3133426E0,1.6370478E1,-1.2643442E1,-1.0546529E0,1.2252654E1,3.1316957E1,-2.5638902E0,-1.5220423E0,-6.849832E-1,5.094628E-1,1.1159937E0,2.6799314E0,4.1513906E0,6.467083E0],"categories":[],"categories_nodes":[],"categories_segments":[],"categories_sizes":[],"default_left":[0,0,0,0,0,0,0,0,0,0,0,0,0,0,0],"id":4,"left_children":[1,3,5,7,9,11,13,-1,-1,-1,-1,-1,-1,-1,-1],"loss_changes":[7.216717E7,1.3887422E7,1.1459972E7,2.254336E6,2.4818888E6,3.241764E6,1.957392E6,0E0,0E0,0E0,0E0,0E0,0E0,0E0,0E0],"parents":[2147483647,0,0,1,1,2,2,3,3,4,4,5,5,6,6],"right_children":[2,4,6,8,10,12,14,-1,-1,-1,-1,-1,-1,-1,-1],"split_conditions":[6.1714287E1,3.757143E1,9.557143E1,2.6571428E1,4E0,3E0,4E0,-2.5638902E0,-1.5220423E0,-6.849832E-1,5.094628E-1,1.1159937E0,2.6799314E0,4.1513906E0,6.467083E0],"split_indices":[7,7,7,7,2,2,2,0,0,0,0,0,0,0,0],"split_type":[0,0,0,0,0,0,0,0,0,0,0,0,0,0,0],"sum_hessian":[6.025E5,4.16296E5,1.86204E5,2.24826E5,1.9147E5,1.45986E5,4.0218E4,1.19489E5,1.05337E5,1.09423E5,8.2047E4,6.2386E4,8.36E4,2.3024E4,1.7194E4],"tree_param":{"num_deleted":"0","num_feature":"8","num_nodes":"15","size_leaf_vector":"1"}},{"base_weights":[-3.7289262E-3,-6.164023E0,1.385106E1,-1.0179199E1,-3.6539772E-1,1.0628676E1,2.7300398E1,-2.115919E0,-1.1875039E0,-4.5814967E-1,3.0873752E-1,1.1427573E0,2.4436407E0,3.6509755E0,6.166947E0],"categories":[],"categories_nodes":[],"categories_segments":[],"categories_sizes":[],"default_left":[0,0,0,0,0,0,0,0,0,0,0,0,0,0,0],"id":5,"left_children":[1,3,5,7,9,11,13,-1,-1,-1,-1,-1,-1,-1,-1],"loss_changes":[5.1407584E7,9.707286E6,8.034008E6,1.965932E6,9.2913256E5,2.334394E6,1.860654E6,0E0,0E0,0E0,0E0,0E0,0E0,0E0,0E0],"parents":[2147483647,0,0,1,1,2,2,3,3,4,4,5,5,6,6],"right_children":[2,4,6,8,10,12,14,-1,-1,-1,-1,-1,-1,-1,-1],"split_conditions":[6.2E1,4E1,1.01E2,2.7428572E1,5.0142857E1,7.528571E1,1.11E2,-2.115919E0,-1.1875039E0,-4.5814967E-1,3.0873752E-1,1.1427573E0,2.4436407E0,3.6509755E0,6.166947E0],"split_indices":[6,7,6,7,7,7,7,0,0,0,0,0,0,0,0],"split_type":[0,0,0,0,0,0,0,0,0,0,0,0,0,0,0],"sum_hessian":[6.02316E5,4.16934E5,1.85382E5,2.46351E5,1.70583E5,1.49552E5,3.583E4,1.28343E5,1.18008E5,8.2018E4,8.8565E4,8.032E4,6.9232E4,2.3996E4,1.1834E4],"tree_param":{"num_deleted":"0","num_feature":"8","num_nodes":"15","size_leaf_vector":"1"}},{"base_weights":[3.5867144E-3,-4.7553163E0,1.2647085E1,-8.618372E0,-1.9730223E-2,1.0093705E1,2.490522E1,-2.2491453E0,-1.2138386E0,-2.897982E-1,5.055024E-1,1.1089345E0,2.3888044E0,3.4874759E0,6.1933413E0],"categories":[],"categories_nodes":[],"categories_segments":[],"categories_sizes":[],"default_left":[0,0,0,0,0,0,0,0,0,0,0,0,0,0,0],"id":6,"left_children":[1,3,5,7,9,11,13,-1,-1,-1,-1,-1,-1,-1,-1],"loss_changes":[3.6249708E7,8.007429E6,5.1564E6,1.500258E6,1.0636024E6,2.028943E6,1.332752E6,0E0,0E0,0E0,0E0,0E0,0E0,0E0,0E0],"parents":[2147483647,0,0,1,1,2,2,3,3,4,4,5,5,6,6],"right_children":[2,4,6,8,10,12,14,-1,-1,-1,-1,-1,-1,-1,-1],"split_conditions":[6.5E1,3.9E1,1.0128571E2,1.9E1,5E0,4E0,1.29E2,-2.2491453E0,-1.2138386E0,-2.897982E-1,5.055024E-1,1.1089345E0,2.3888044E0,3.4874759E0,6.1933413E0],"split_indices":[7,6,7,7,2,2,6,0,0,0,0,0,0,0,0],"split_type":[0,0,0,0,0,0,0,0,0,0,0,0,0,0,0],"sum_hessian":[6.02461E5,4.37711E5,1.6475E5,2.41063E5,1.96648E5,1.3635E5,2.84E4,4.6823E4,1.9424E5,1.25793E5,7.0855E4,7.7947E4,5.8403E4,2.209E4,6.31E3],"tree_param":{"num_deleted":"0","num_feature":"8","num_nodes":"15","size_leaf_vector":"1"}},{"base_weights":[-3.6701837E-3,-4.168655E0,1.0312424E1,-7.1556206E0,1.4410372E-1,7.1843133E0,1.7703096E1,-1.52182E0,-8.23056E-1,-2.6953918E-1,3.330656E-1,6.8610024E-1,1.5062706E0,2.5035598E0,4.5972953E0],"categories":[],"categories_nodes":[],"categories_segments":[],"categories_sizes":[],"default_left":[0,0,0,0,0,0,0,0,0,0,0,0,0,0,0],"id":7,"left_children":[1,3,5,7,9,11,13,-1,-1,-1,-1,-1,-1,-1,-1],"loss_changes":[2.5874478E7,5.526406E6,4.004124E6,1.14774E6,5.9081406E5,7.279015E5,1.301322E6,0E0,0E0,0E0,0E0,0E0,0E0,0E0,0E0],"parents":[2147483647,0,0,1,1,2,2,3,3,4,4,5,5,6,6],"right_children":[2,4,6,8,10,12,14,-1,-1,-1,-1,-1,-1,-1,-1],"split_conditions":[6.4E1,4.0857143E1,9.1E1,2.7E1,5.1E1,6.971429E1,1.23E2,-1.52182E0,-8.23056E-1,-2.6953918E-1,3.330656E-1,6.8610024E-1,1.5062706E0,2.5035598E0,4.5972953E0],"split_indices":[6,7,7,6,6,7,6,0,0,0,0,0,0,0,0],"split_type":[0,0,0,0,0,0,0,0,0,0,0,0,0,0,0],"sum_hessian":[6.02201E5,4.28999E5,1.73202E5,2.53457E5,1.75542E5,1.21696E5,5.1506E4,1.2758E5,1.25877E5,9.0132E4,8.541E4,4.8487E4,7.3209E4,4.1597E4,9.909E3],"tree_param":{"num_deleted":"0","num_feature":"8","num_nodes":"15","size_leaf_vector":"1"}},{"base_weights":[-1.2714824E-2,-4.779096E0,6.3905582E0,-7.461651E0,-2.608384E0,3.2184825E0,1.2263761E1,-1.8699619E0,-1.0859976E0,-5.64554E-1,-1.667811E-1,3.1257537E-1,8.361283E-1,1.6989819E0,3.4529073E0],"categories":[],"categories_nodes":[],"categories_segments":[],"categories_sizes":[],"default_left":[0,0,0,0,0,0,0,0,0,0,0,0,0,0,0],"id":8,"left_children":[1,3,5,7,9,11,13,-1,-1,-1,-1,-1,-1,-1,-1],"loss_changes":[1.8385606E7,2.010926E6,4.789069E6,5.13764E5,2.523965E5,4.1126888E5,1.513637E6,0E0,0E0,0E0,0E0,0E0,0E0,0E0,0E0],"parents":[2147483647,0,0,1,1,2,2,3,3,4,4,5,5,6,6],"right_children":[2,4,6,8,10,12,14,-1,-1,-1,-1,-1,-1,-1,-1],"split_conditions":[5.1857143E1,3E1,8.1E1,1.6428572E1,4.3857143E1,6.6E1,1.09E2,-1.8699619E0,-1.0859976E0,-5.64554E-1,-1.667811E-1,3.1257537E-1,8.361283E-1,1.6989819E0,3.4529073E0],"split_indices":[7,7,6,7,7,6,7,0,0,0,0,0,0,0,0],"split_type":[0,0,0,0,0,0,0,0,0,0,0,0,0,0,0],"sum_hessian":[6.02401E5,3.45341E5,2.5706E5,1.54459E5,1.90882E5,1.66913E5,9.0147E4,2.7391E4,1.27068E5,1.25466E5,6.5416E4,9.8107E4,6.8806E4,7.3987E4,1.616E4],"tree_param":{"num_deleted":"0","num_feature":"8","num_nodes":"15","size_leaf_vector":"1"}},{"base_weights":[1.7706449E-3,-3.8684206E0,5.57816E0,-6.168552E0,-1.9615343E0,3.37724E0,1.1905721E1,-1.5356945E0,-8.919695E-1,-4.3530655E-1,-2.3768125E-2,2.6431063E-1,8.85843E-1,1.7809739E0,4.3275084E0],"categories":[],"categories_nodes":[],"categories_segments":[],"categories_sizes":[],"default_left":[0,0,0,0,0,0,0,0,0,0,0,0,0,0,0],"id":9,"left_children":[1,3,5,7,9,11,13,-1,-1,-1,-1,-1,-1,-1,-1],"loss_changes":[1.3003832E7,1.5600495E6,3.437789E6,3.776965E5,2.4374469E5,6.533305E5,9.73706E5,0E0,0E0,0E0,0E0,0E0,0E0,0E0,0E0],"parents":[2147483647,0,0,1,1,2,2,3,3,4,4,5,5,6,6],"right_children":[2,4,6,8,10,12,14,-1,-1,-1,-1,-1,-1,-1,-1],"split_conditions":[5.3E1,3.0714285E1,8.7E1,1.6857143E1,4.8E1,6.6E1,1.35E2,-1.5356945E0,-8.919695E-1,-4.3530655E-1,-2.3768125E-2,2.6431063E-1,8.85843E-1,1.7809739E0,4.3275084E0],"split_indices":[6,7,7,7,7,5,6,0,0,0,0,0,0,0,0],"split_type":[0,0,0,0,0,0,0,0,0,0,0,0,0,0,0],"sum_hessian":[6.02538E5,3.55683E5,2.46855E5,1.61217E5,1.94466E5,1.83151E5,6.3704E4,3.0243E4,1.30974E5,1.40943E5,5.3523E4,9.765E4,8.5501E4,5.9361E4,4.343E3],"tree_param":{"num_deleted":"0","num_feature":"8","num_nodes":"15","size_leaf_vector":"1"}},{"base_weights":[-1.1324817E-3,-2.2896657E0,6.69396E0,-4.368385E0,4.9396355E-2,5.4737253E0,1.4227771E1,-1.0545052E0,-5.6453824E-1,-2.3023199E-1,1.8330926E-1,5.80389E-1,1.1569599E0,1.9524443E0,3.664902E0],"categories":[],"categories_nodes":[],"categories_segments":[],"categories_sizes":[],"default_left":[0,0,0,0,0,0,0,0,0,0,0,0,0,0,0],"id":10,"left_children":[1,3,5,7,9,11,13,-1,-1,-1,-1,-1,-1,-1,-1],"loss_changes":[9.225587E6,2.1818385E6,1.4100025E6,4.5385E5,3.2710556E5,4.02592E5,4.03941E5,0E0,0E0,0E0,0E0,0E0,0E0,0E0,0E0],"parents":[2147483647,0,0,1,1,2,2,3,3,4,4,5,5,6,6],"right_children":[2,4,6,8,10,12,14,-1,-1,-1,-1,-1,-1,-1,-1],"split_conditions":[6.685714E1,3.9E1,1.0542857E2,2.2E1,4.957143E1,7.857143E1,1.23E2,-1.0545052E0,-5.6453824E-1,-2.3023199E-1,1.8330926E-1,5.80389E-1,1.1569599E0,1.9524443E0,3.664902E0],"split_indices":[7,7,7,7,7,7,7,0,0,0,0,0,0,0,0],"split_type":[0,0,0,0,0,0,0,0,0,0,0,0,0,0,0],"sum_hessian":[6.02114E5,4.48729E5,1.53385E5,2.37586E5,2.11143E5,1.32006E5,2.1379E4,7.4019E4,1.63567E5,8.9452E4,1.21691E5,5.9139E4,7.2867E4,1.6594E4,4.785E3],"tree_param":{"num_deleted":"0","num_feature":"8","num_nodes":"15","size_leaf_vector":"1"}},{"base_weights":[-9.660932E-3,-1.9504076E0,5.555344E0,-6.126122E0,-1.1075386E0,4.21439E0,1.1019489E1,-1.1931988E0,-6.2582546E-1,-4.5410064E-1,3.4033334E-1,-4.644088E-1,7.976985E-1,1.4036717E0,3.0460584E0],"categories":[],"categories_nodes":[],"categories_segments":[],"categories_sizes":[],"default_left":[0,0,0,0,0,0,0,0,0,0,0,0,0,0,0],"id":11,"left_children":[1,3,5,7,9,11,13,-1,-1,-1,-1,-1,-1,-1,-1],"loss_changes":[6.5047295E6,1.571648E6,1.1410065E6,1.981135E5,1.9597372E6,5.6751225E5,5.7081925E5,0E0,0E0,0E0,0E0,0E0,0E0,0E0,0E0],"parents":[2147483647,0,0,1,1,2,2,3,3,4,4,5,5,6,6],"right_children":[2,4,6,8,10,12,14,-1,-1,-1,-1,-1,-1,-1,-1],"split_conditions":[6.7E1,1E0,1.04E2,5.2857143E1,4.3E1,1E0,1.2E2,-1.1931988E0,-6.2582546E-1,-4.5410064E-1,3.4033334E-1,-4.644088E-1,7.976985E-1,1.4036717E0,3.0460584E0],"split_indices":[6,2,6,7,5,2,5,0,0,0,0,0,0,0,0],"split_type":[0,0,0,0,0,0,0,0,0,0,0,0,0,0,0],"sum_hessian":[6.02273E5,4.46545E5,1.55728E5,7.4996E4,3.71549E5,1.25043E5,3.0685E4,5.022E4,2.4776E4,2.44212E5,1.27337E5,1.0481E4,1.14562E5,2.3111E4,7.574E3],"tree_param":{"num_deleted":"0","num_feature":"8","num_nodes":"15","size_leaf_vector":"1"}},{"base_weights":[5.5026566E-3,-1.3516418E0,5.7089605E0,-2.93523E0,5.720944E-1,1.7806376E0,7.184798E0,-9.2624426E-1,-3.8755304E-1,-1.7510338E-1,2.0772742E-1,-3.0826164E-2,4.7487158E-1,1.1165848E0,3.5918944E0],"categories":[],"categories_nodes":[],"categories_segments":[],"categories_sizes":[],"default_left":[0,0,0,0,0,0,0,0,0,0,0,0,0,0,0],"id":12,"left_children":[1,3,5,7,9,11,13,-1,-1,-1,-1,-1,-1,-1,-1],"loss_changes":[4.6615575E6,1.4820112E6,6.71102E5,4.14986E5,2.494925E5,6.91864E4,4.74252E5,0E0,0E0,0E0,0E0,0E0,0E0,0E0,0E0],"parents":[2147483647,0,0,1,1,2,2,3,3,4,4,5,5,6,6],"right_children":[2,4,6,8,10,12,14,-1,-1,-1,-1,-1,-1,-1,-1],"split_conditions":[7.5E1,4.2E1,7.5E1,1.8E1,4.7E1,6.4E1,1.44E2,-9.2624426E-1,-3.8755304E-1,-1.7510338E-1,2.0772742E-1,-3.0826164E-2,4.7487158E-1,1.1165848E0,3.5918944E0],"split_indices":[6,6,5,6,5,5,6,0,0,0,0,0,0,0,0],"split_type":[0,0,0,0,0,0,0,0,0,0,0,0,0,0,0],"sum_hessian":[6.02234E5,4.86477E5,1.15757E5,2.66828E5,2.19649E5,3.1613E4,8.4144E4,4.673E4,2.20098E5,6.5294E4,1.54355E5,1.1411E4,2.0202E4,8.2004E4,2.14E3],"tree_param":{"num_deleted":"0","num_feature":"8","num_nodes":"15","size_leaf_vector":"1"}},{"base_weights":[-4.4580516E-3,-1.3605583E0,4.230887E0,-3.5398688E0,2.7364767E-1,2.3687809E0,8.8843775E0,-8.721681E-1,-4.3653756E-1,-3.30802E-1,2.235636E-1,-4.171481E-1,5.9004265E-1,1.3395914E0,3.7926834E0],"categories":[],"categories_nodes":[],"categories_segments":[],"categories_sizes":[],"default_left":[0,0,0,0,0,0,0,0,0,0,0,0,0,0,0],"id":13,"left_children":[1,3,5,7,9,11,13,-1,-1,-1,-1,-1,-1,-1,-1],"loss_changes":[3.45767E6,1.6240295E6,1.2651638E6,3.0510725E5,6.489096E5,6.272586E5,4.2987225E5,0E0,0E0,0E0,0E0,0E0,0E0,0E0,0E0],"parents":[2147483647,0,0,1,1,2,2,3,3,4,4,5,5,6,6],"right_children":[2,4,6,8,10,12,14,-1,-1,-1,-1,-1,-1,-1,-1],"split_conditions":[6.814286E1,3E0,5E0,1E0,2.9285715E1,1E0,1.19E2,-8.721681E-1,-4.3653756E-1,-3.30802E-1,2.235636E-1,-4.171481E-1,5.9004265E-1,1.3395914E0,3.7926834E0],"split_indices":[7,2,2,2,7,2,7,0,0,0,0,0,0,0,0],"split_type":[0,0,0,0,0,0,0,0,0,0,0,0,0,0,0],"sum_hessian":[6.02007E5,4.56002E5,1.46005E5,1.9541E5,2.60592E5,1.04279E5,4.1726E4,6.4874E4,1.30536E5,8.3972E4,1.7662E5,2.0825E4,8.3454E4,3.9703E4,2.023E3],"tree_param":{"num_deleted":"0","num_feature":"8","num_nodes":"15","size_leaf_vector":"1"}},{"base_weights":[5.393495E-3,-1.6834531E0,2.3202357E0,-2.7404218E0,1.241102E-1,9.176935E-1,4.8928947E0,-2.4649023E-1,-6.56929E-1,2.5959238E-1,-1.7711918E-1,-4.7963363E-1,2.5603327E-1,5.919208E-1,1.6226617E0],"categories":[0,2,3,4,15,16,22,26,33,36,39,40,41,43,46,48,0,3,4,15,16,22,26,33,36,39,40,43,46,48],"categories_nodes":[3,4],"categories_segments":[0,16],"categories_sizes":[16,14],"default_left":[0,0,0,1,1,0,0,0,0,0,0,0,0,0,0],"id":14,"left_children":[1,3,5,7,9,11,13,-1,-1,-1,-1,-1,-1,-1,-1],"loss_changes":[2.3571535E6,6.6602906E5,9.17703E5,3.436745E5,2.2546227E5,4.0557378E5,5.7656725E5,0E0,0E0,0E0,0E0,0E0,0E0,0E0,0E0],"parents":[2147483647,0,0,1,1,2,2,3,3,4,4,5,5,6,6],"right_children":[2,4,6,8,10,12,14,-1,-1,-1,-1,-1,-1,-1,-1],"split_conditions":[5.2E1,4E0,5E0,1E-45,1E-45,1E0,9.6E1,-2.4649023E-1,-6.56929E-1,2.5959238E-1,-1.7711918E-1,-4.7963363E-1,2.5603327E-1,5.919208E-1,1.6226617E0],"split_indices":[6,2,2,1,1,2,5,0,0,0,0,0,0,0,0],"split_type":[0,0,0,1,1,0,0,0,0,0,0,0,0,0,0],"sum_hessian":[6.02941E5,3.48607E5,2.54334E5,2.19976E5,1.28631E5,1.646E5,8.9734E4,1.10951E5,1.09025E5,5.8171E4,7.046E4,2.3575E4,1.41025E5,7.1333E4,1.8401E4],"tree_param":{"num_deleted":"0","num_feature":"8","num_nodes":"15","size_leaf_vector":"1"}},{"base_weights":[3.3510479E-3,-8.3122146E-1,4.0238214E0,2.2347601E-1,-2.076792E0,3.4983275E0,1.1188534E1,-9.240219E-2,1.3448398E-1,-9.453733E-1,-2.9551E-1,4.748419E-1,8.4544647E-1,1.6259756E0,3.465543E0],"categories":[0,2,3,4,15,16,18,20,22,26,29,33,36,39,40,41,43,46,48],"categories_nodes":[1],"categories_segments":[0],"categories_sizes":[19],"default_left":[0,1,0,0,0,0,0,0,0,0,0,0,0,0,0],"id":15,"left_children":[1,3,5,7,9,11,13,-1,-1,-1,-1,-1,-1,-1,-1],"loss_changes":[2.0202741E6,6.550126E5,3.8963988E5,1.26454016E5,2.3299312E5,9.649075E4,8.992194E4,0E0,0E0,0E0,0E0,0E0,0E0,0E0,0E0],"parents":[2147483647,0,0,1,1,2,2,3,3,4,4,5,5,6,6],"right_children":[2,4,6,8,10,12,14,-1,-1,-1,-1,-1,-1,-1,-1],"split_conditions":[7.642857E1,1E-45,1.19E2,5.0714287E1,1.4571428E1,9.885714E1,1.54E2,-9.240219E-2,1.3448398E-1,-9.453733E-1,-2.9551E-1,4.748419E-1,8.4544647E-1,1.6259756E0,3.465543E0],"split_indices":[7,1,7,7,7,7,6,0,0,0,0,0,0,0,0],"split_type":[0,1,0,0,0,0,0,0,0,0,0,0,0,0,0],"sum_hessian":[6.02099E5,4.986E5,1.03499E5,2.69987E5,2.28613E5,9.6428E4,7.071E3,1.16372E5,1.53615E5,1.5988E4,2.12625E5,7.054E4,2.5888E4,6.262E3,8.09E2],"tree_param":{"num_deleted":"0","num_feature":"8","num_nodes":"15","size_leaf_vector":"1"}},{"base_weights":[8.078808E-3,-9.691213E-1,2.4569776E0,4.0889052E-1,-2.238986E0,1.2187533E0,5.82312E0,-4.2510614E-1,1.8982725E-1,-6.828683E-1,-2.8886846E-1,3.461178E-1,1.1013976E-2,8.6957407E-1,2.48088E0],"categories":[0,2,3,4,8,15,16,18,19,20,22,25,26,29,31,33,36,38,39,40,41,42,43,46,47,48,0,2,3,4,15,16,22,26,33,36,39,40,41,43,46,48],"categories_nodes":[1,5],"categories_segments":[0,26],"categories_sizes":[26,16],"default_left":[0,1,0,0,0,1,0,0,0,0,0,0,0,0,0],"id":16,"left_children":[1,3,5,7,9,11,13,-1,-1,-1,-1,-1,-1,-1,-1],"loss_changes":[1.440718E6,7.5302E5,7.157076E5,4.624247E5,2.0620525E5,1.28593766E5,2.2576062E5,0E0,0E0,0E0,0E0,0E0,0E0,0E0,0E0],"parents":[2147483647,0,0,1,1,2,2,3,3,4,4,5,5,6,6],"right_children":[2,4,6,8,10,12,14,-1,-1,-1,-1,-1,-1,-1,-1],"split_conditions":[5E0,1E-45,7.2E1,1E0,1E0,1E-45,1.31E2,-4.2510614E-1,1.8982725E-1,-6.828683E-1,-2.8886846E-1,3.461178E-1,1.1013976E-2,8.6957407E-1,2.48088E0],"split_indices":[2,1,5,2,2,1,5,0,0,0,0,0,0,0,0],"split_type":[0,1,0,0,0,1,0,0,0,0,0,0,0,0,0],"sum_hessian":[6.02037E5,4.30323E5,1.71714E5,2.06374E5,2.23949E5,1.25537E5,4.6177E4,4.1177E4,1.65197E5,4.4744E4,1.79205E5,7.0832E4,5.4705E4,4.3701E4,2.476E3],"tree_param":{"num_deleted":"0","num_feature":"8","num_nodes":"15","size_leaf_vector":"1"}},{"base_weights":[-3.8649812E-3,-6.1013925E-1,3.1716108E0,-2.0134723E0,4.4078895E-1,3.4775586E0,-1.1021352E1,-5.3944695E-1,-2.4219353E-1,-9.4679266E-2,2.2153223E-1,1.9684994E-1,8.5165113E-1,-1.4003192E0,-3.2903197E0],"categories":[],"categories_nodes":[],"categories_segments":[],"categories_sizes":[],"default_left":[0,0,0,0,0,0,0,0,0,0,0,0,0,0,0],"id":17,"left_children":[1,3,5,7,9,11,13,-1,-1,-1,-1,-1,-1,-1,-1],"loss_changes":[1.1585544E6,7.452274E5,4.1896212E5,1.4817794E5,2.6710078E5,3.6792562E5,4.5594203E4,0E0,0E0,0E0,0E0,0E0,0E0,0E0,0E0],"parents":[2147483647,0,0,1,1,2,2,3,3,4,4,5,5,6,6],"right_children":[2,4,6,8,10,12,14,-1,-1,-1,-1,-1,-1,-1,-1],"split_conditions":[7.8E1,3E0,1.2E1,2.9571428E1,4E1,3E0,9.271429E1,-5.3944695E-1,-2.4219353E-1,-9.4679266E-2,2.2153223E-1,1.9684994E-1,8.5165113E-1,-1.4003192E0,-3.2903197E0],"split_indices":[7,2,3,7,5,2,7,0,0,0,0,0,0,0,0],"split_type":[0,0,0,0,0,0,0,0,0,0,0,0,0,0,0],"sum_hessian":[6.01779E5,5.05305E5,9.6474E4,2.16374E5,2.88931E5,9.4439E4,2.035E3,6.4326E4,1.52048E5,1.36296E5,1.52635E5,4.0487E4,5.3952E4,1.596E3,4.39E2],"tree_param":{"num_deleted":"0","num_feature":"8","num_nodes":"15","size_leaf_vector":"1"}},{"base_weights":[-4.835507E-3,-7.3252815E-1,1.8165952E0,5.823309E-1,-1.4719452E0,3.6857634E0,7.631346E-1,1.6048777E-1,-5.8722496E-1,-4.9612796E-1,-1.7852092E-1,6.762858E-1,-2.0283757E-1,-4.6747384E-4,2.5153434E-1],"categories":[0,1,2,3,4,5,6,8,13,15,16,18,19,20,22,25,26,29,30,31,33,36,38,39,40,41,42,43,45,46,47,48,0,1,2,3,4,5,6,8,13,15,16,18,19,20,22,25,26,29,30,31,33,36,38,39,40,41,42,43,45,46,47,48],"categories_nodes":[1,2],"categories_segments":[0,32],"categories_sizes":[32,32],"default_left":[0,1,1,0,0,0,0,0,0,0,0,0,0,0,0],"id":18,"left_children":[1,3,5,7,9,11,13,-1,-1,-1,-1,-1,-1,-1,-1],"loss_changes":[7.981916E5,4.1834812E5,3.3850625E5,2.5457752E5,1.6416681E5,1.3219231E5,6.475946E4,0E0,0E0,0E0,0E0,0E0,0E0,0E0,0E0],"parents":[2147483647,0,0,1,1,2,2,3,3,4,4,5,5,6,6],"right_children":[2,4,6,8,10,12,14,-1,-1,-1,-1,-1,-1,-1,-1],"split_conditions":[5E0,1E-45,1E-45,1.2E1,1E0,1.2E1,6E0,1.6048777E-1,-5.8722496E-1,-4.9612796E-1,-1.7852092E-1,6.762858E-1,-2.0283757E-1,-4.6747384E-4,2.5153434E-1],"split_indices":[2,1,1,3,2,3,2,0,0,0,0,0,0,0,0],"split_type":[0,1,1,0,0,0,0,0,0,0,0,0,0,0,0],"sum_hessian":[6.02206E5,4.30296E5,1.7191E5,1.54881E5,2.75415E5,6.1964E4,1.09946E5,1.41442E5,1.3439E4,5.475E4,2.20665E5,5.6948E4,5.016E3,5.508E4,5.4866E4],"tree_param":{"num_deleted":"0","num_feature":"8","num_nodes":"15","size_leaf_vector":"1"}},{"base_weights":[-1.5916502E-3,-5.698922E-1,1.7838045E0,-2.5906966E0,-2.9331672E-1,-1.8236556E0,2.74855E0,-3.948681E-1,-6.703788E-1,-6.283568E-3,-4.1872758E-1,-1.7749879E-1,-4.6194333E-1,3.7382606E-1,1.203749E0],"categories":[],"categories_nodes":[],"categories_segments":[],"categories_sizes":[],"default_left":[0,0,0,0,0,0,0,0,0,0,0,0,0,0,0],"id":19,"left_children":[1,3,5,7,9,11,13,-1,-1,-1,-1,-1,-1,-1,-1],"loss_changes":[6.109655E5,2.5528461E5,5.0599953E5,1.5219969E4,2.3128864E5,2.2548742E4,2.4793138E5,0E0,0E0,0E0,0E0,0E0,0E0,0E0,0E0],"parents":[2147483647,0,0,1,1,2,2,3,3,4,4,5,5,6,6],"right_children":[2,4,6,8,10,12,14,-1,-1,-1,-1,-1,-1,-1,-1],"split_conditions":[6.9E1,1E0,1E0,1.2E1,1.2E1,8E0,1.15E2,-3.948681E-1,-6.703788E-1,-6.283568E-3,-4.1872758E-1,-1.7749879E-1,-4.6194333E-1,3.7382606E-1,1.203749E0],"split_indices":[5,2,2,3,3,3,5,0,0,0,0,0,0,0,0],"split_type":[0,0,0,0,0,0,0,0,0,0,0,0,0,0,0],"sum_hessian":[6.02147E5,4.56759E5,1.45388E5,5.4987E4,4.01772E5,3.0677E4,1.14711E5,4.8909E4,6.078E3,3.60984E5,4.0788E4,1.7531E4,1.3146E4,1.04011E5,1.07E4],"tree_param":{"num_deleted":"0","num_feature":"8","num_nodes":"15","size_leaf_vector":"1"}},{"base_weights":[9.842144E-3,-3.7277743E-1,2.3116107E0,-6.352986E-1,2.1579754E0,8.392655E-1,3.8865623E0,-2.673405E-1,-3.2630105E-2,3.880723E-1,-2.4326828E0,-2.6007295E-1,1.9567898E-1,6.013074E-1,2.4810755E0],"categories":[],"categories_nodes":[],"categories_segments":[],"categories_sizes":[],"default_left":[0,0,0,0,0,0,0,0,0,0,0,0,0,0,0],"id":20,"left_children":[1,3,5,7,9,11,13,-1,-1,-1,-1,-1,-1,-1,-1],"loss_changes":[5.309601E5,3.434513E5,1.992621E5,2.0304736E5,1.6973925E5,3.795386E4,1.0435144E5,0E0,0E0,0E0,0E0,0E0,0E0,0E0,0E0],"parents":[2147483647,0,0,1,1,2,2,3,3,4,4,5,5,6,6],"right_children":[2,4,6,8,10,12,14,-1,-1,-1,-1,-1,-1,-1,-1],"split_conditions":[6E0,8.928571E1,4.7714287E1,3.1285715E1,1.2E1,1.8142857E1,1.4E2,-2.673405E-1,-3.2630105E-2,3.880723E-1,-2.4326828E0,-2.6007295E-1,1.9567898E-1,6.013074E-1,2.4810755E0],"split_indices":[2,7,7,7,3,7,5,0,0,0,0,0,0,0,0],"split_type":[0,0,0,0,0,0,0,0,0,0,0,0,0,0,0],"sum_hessian":[6.02881E5,5.1695E5,8.5931E4,4.68366E5,4.8584E4,4.4413E4,4.1518E4,1.4302E5,3.25346E5,4.8003E4,5.81E2,5.641E3,3.8772E4,4.0707E4,8.11E2],"tree_param":{"num_deleted":"0","num_feature":"8","num_nodes":"15","size_leaf_vector":"1"}},{"base_weights":[-4.474069E-3,-9.7972125E-1,7.2752666E-1,-1.5304778E0,-2.0280819E-1,2.42479E-1,2.7060356E0,-7.673688E-1,-2.3402515E-1,-2.7981654E-1,8.986384E-2,-3.322532E-1,7.552007E-2,4.05815E-1,2.354963E0],"categories":[],"categories_nodes":[],"categories_segments":[],"categories_sizes":[],"default_left":[0,0,0,0,0,0,0,0,0,0,0,0,0,0,0],"id":21,"left_children":[1,3,5,7,9,11,13,-1,-1,-1,-1,-1,-1,-1,-1],"loss_changes":[4.295704E5,1.1039617E5,3.298738E5,4.984297E4,1.2055853E5,1.3607962E5,1.8444866E5,0E0,0E0,0E0,0E0,0E0,0E0,0E0,0E0],"parents":[2147483647,0,0,1,1,2,2,3,3,4,4,5,5,6,6],"right_children":[2,4,6,8,10,12,14,-1,-1,-1,-1,-1,-1,-1,-1],"split_conditions":[3E0,5.2857143E1,7.6E1,1.3571428E1,1E0,1.8428572E1,1.2971428E2,-7.673688E-1,-2.3402515E-1,-2.7981654E-1,8.986384E-2,-3.322532E-1,7.552007E-2,4.05815E-1,2.354963E0],"split_indices":[2,7,5,7,2,7,7,0,0,0,0,0,0,0,0],"split_type":[0,0,0,0,0,0,0,0,0,0,0,0,0,0,0],"sum_hessian":[6.01737E5,2.58001E5,3.43736E5,1.50974E5,1.07027E5,2.76059E5,6.7677E4,4.88E3,1.46094E5,3.5656E4,7.1371E4,2.4175E4,2.51884E5,6.6343E4,1.334E3],"tree_param":{"num_deleted":"0","num_feature":"8","num_nodes":"15","size_leaf_vector":"1"}},{"base_weights":[-3.6282542E-3,2.114994E-1,-2.3086307E0,-5.013337E-1,9.784112E-1,-2.1007361E0,-1.1075817E1,-5.7460856E-1,-6.219064E-2,1.3419935E-1,8.7581897E-1,-3.1067446E-1,-6.5113693E-1,-1.420369E0,-2.5237174E0],"categories":[0,2,3,8,9],"categories_nodes":[6],"categories_segments":[0],"categories_sizes":[5],"default_left":[0,0,0,0,0,0,1,0,0,0,0,0,0,0,0],"id":22,"left_children":[1,3,5,7,9,11,13,-1,-1,-1,-1,-1,-1,-1,-1],"loss_changes":[2.984848E5,3.009796E5,9.363175E4,1.0483924E5,1.8601253E5,1.9507297E4,1.2261281E4,0E0,0E0,0E0,0E0,0E0,0E0,0E0,0E0],"parents":[2147483647,0,0,1,1,2,2,3,3,4,4,5,5,6,6],"right_children":[2,4,6,8,10,12,14,-1,-1,-1,-1,-1,-1,-1,-1],"split_conditions":[1.2E1,4.8857143E1,8.342857E1,1.4142858E1,1.1585714E2,6.528571E1,1E-45,-5.7460856E-1,-6.219064E-2,1.3419935E-1,8.7581897E-1,-3.1067446E-1,-6.5113693E-1,-1.420369E0,-2.5237174E0],"split_indices":[3,7,7,7,7,7,0,0,0,0,0,0,0,0,0],"split_type":[0,0,0,0,0,0,1,0,0,0,0,0,0,0,0],"sum_hessian":[6.0194E5,5.50557E5,5.1383E4,2.85339E5,2.65218E5,5.0194E4,1.189E3,1.1201E4,2.74138E5,2.55766E5,9.452E3,4.5151E4,5.043E3,7.62E2,4.27E2],"tree_param":{"num_deleted":"0","num_feature":"8","num_nodes":"15","size_leaf_vector":"1"}},{"base_weights":[-1.1522576E-2,-3.0354545E-1,1.7496344E0,-1.6494857E0,-3.603244E-2,1.1511439E0,3.3607864E0,-2.1151698E-1,-3.5060436E-1,7.9203285E-2,-1.3333601E-1,-1.4779606E-2,2.4528348E-1,5.1009744E-1,1.8885486E0],"categories":[0,4,5,6],"categories_nodes":[4],"categories_segments":[0],"categories_sizes":[4],"default_left":[0,0,0,0,1,0,0,0,0,0,0,0,0,0,0],"id":23,"left_children":[1,3,5,7,9,11,13,-1,-1,-1,-1,-1,-1,-1,-1],"loss_changes":[3.097731E5,1.860246E5,8.260228E4,1.50333125E4,1.7342445E5,2.6583281E4,4.791264E4,0E0,0E0,0E0,0E0,0E0,0E0,0E0,0E0],"parents":[2147483647,0,0,1,1,2,2,3,3,4,4,5,5,6,6],"right_children":[2,4,6,8,10,12,14,-1,-1,-1,-1,-1,-1,-1,-1],"split_conditions":[6E0,1E0,7.4E1,8E0,1E-45,2.7E1,1.42E2,-2.1151698E-1,-3.5060436E-1,7.9203285E-2,-1.3333601E-1,-1.4779606E-2,2.4528348E-1,5.1009744E-1,1.8885486E0],"split_indices":[2,2,5,3,0,5,5,0,0,0,0,0,0,0,0],"split_type":[0,0,0,0,1,0,0,0,0,0,0,0,0,0,0],"sum_hessian":[6.0232E5,5.16653E5,8.5667E4,8.5661E4,4.30992E5,6.2465E4,2.3202E4,4.9147E4,3.6514E4,2.58386E5,1.72606E5,1.3521E4,4.8944E4,2.2502E4,7E2],"tree_param":{"num_deleted":"0","num_feature":"8","num_nodes":"15","size_leaf_vector":"1"}},{"base_weights":[5.5254702E-3,1.1048003E0,-3.0448878E-1,2.2140498E0,3.6295527E-1,-6.2035475E-2,-1.2416493E0,2.8213868E-1,6.048343E-1,1.4623068E-1,-2.7106553E-2,4.125213E-2,-8.710406E-2,-1.35725E-1,-3.6292928E-1],"categories":[0,1,2,3,4,5,6,8,10,11,13,15,16,18,19,20,22,23,25,26,28,29,30,31,32,33,34,36,38,39,40,41,42,43,45,46,47,48,49,0,3,4,5,6,8,0,3,4,15,26,33,40,46,4,5,6,0,4,5,6,4,5,6],"categories_nodes":[0,1,2,4,5,6],"categories_segments":[0,39,45,53,56,60],"categories_sizes":[39,6,8,3,4,3],"default_left":[1,1,1,0,1,1,1,0,0,0,0,0,0,0,0],"id":24,"left_children":[1,3,5,7,9,11,13,-1,-1,-1,-1,-1,-1,-1,-1],"loss_changes":[2.0539398E5,1.0909895E5,1.068188E5,3.8698375E4,2.2140586E4,5.482348E4,3.884811E4,0E0,0E0,0E0,0E0,0E0,0E0,0E0,0E0],"parents":[2147483647,0,0,1,1,2,2,3,3,4,4,5,5,6,6],"right_children":[2,4,6,8,10,12,14,-1,-1,-1,-1,-1,-1,-1,-1],"split_conditions":[1E-45,1E-45,1E-45,2.016E3,1E-45,1E-45,1E-45,2.8213868E-1,6.048343E-1,1.4623068E-1,-2.7106553E-2,4.125213E-2,-8.710406E-2,-1.35725E-1,-3.6292928E-1],"split_indices":[1,0,1,4,0,0,0,0,0,0,0,0,0,0,0],"split_type":[1,1,1,0,1,1,1,0,0,0,0,0,0,0,0],"sum_hessian":[6.02696E5,1.3258E5,4.70116E5,5.3132E4,7.9448E4,3.73491E5,9.6625E4,3.9738E4,1.3394E4,3.9736E4,3.9712E4,2.2382E5,1.49671E5,6.7654E4,2.8971E4],"tree_param":{"num_deleted":"0","num_feature":"8","num_nodes":"15","size_leaf_vector":"1"}},{"base_weights":[1.0552282E-2,1.8613732E-1,-1.8766589E0,1.5138432E-1,8.210283E0,-1.3013078E0,-6.3928905E0,-5.0843183E-2,1.0115006E-1,1.5986176E0,1.282881E-1,-1.779927E-1,-4.4081444E-1,-7.4838173E-1,-1.5659778E0],"categories":[],"categories_nodes":[],"categories_segments":[],"categories_sizes":[],"default_left":[0,0,0,0,0,0,0,0,0,0,0,0,0,0,0],"id":25,"left_children":[1,3,5,7,9,11,13,-1,-1,-1,-1,-1,-1,-1,-1],"loss_changes":[1.9947773E5,1.535812E5,1.3313723E5,1.1749818E5,2.6931703E4,1.3654414E4,3.3366906E4,0E0,0E0,0E0,0E0,0E0,0E0,0E0,0E0],"parents":[2147483647,0,0,1,1,2,2,3,3,4,4,5,5,6,6],"right_children":[2,4,6,8,10,12,14,-1,-1,-1,-1,-1,-1,-1,-1],"split_conditions":[1.2E1,1.2971428E2,7.1E1,4.742857E1,8E0,5.7E1,8.7E1,-5.0843183E-2,1.0115006E-1,1.5986176E0,1.282881E-1,-1.779927E-1,-4.4081444E-1,-7.4838173E-1,-1.5659778E0],"split_indices":[3,7,6,7,3,6,6,0,0,0,0,0,0,0,0],"split_type":[0,0,0,0,0,0,0,0,0,0,0,0,0,0,0],"sum_hessian":[6.01984E5,5.50744E5,5.124E4,5.4837E5,2.374E3,4.5451E4,5.789E3,2.75266E5,2.73104E5,1.969E3,4.05E2,3.9287E4,6.164E3,3.658E3,2.131E3],"tree_param":{"num_deleted":"0","num_feature":"8","num_nodes":"15","size_leaf_vector":"1"}},{"base_weights":[-3.3130697E-3,-7.3510283E-1,5.445812E-1,-3.534069E-1,-1.2572393E0,1.0479819E0,-1.5367235E-1,-2.4124925E-1,9.838715E-3,-1.8539724E-1,-6.6441345E-1,-6.5503724E-2,2.6287943E-1,1.71322E-2,-1.9712092E-1],"categories":[],"categories_nodes":[],"categories_segments":[],"categories_sizes":[],"default_left":[0,0,0,0,0,0,0,0,0,0,0,0,0,0,0],"id":26,"left_children":[1,3,5,7,9,11,13,-1,-1,-1,-1,-1,-1,-1,-1],"loss_changes":[2.4149983E5,5.1395547E4,1.2107232E5,6.872403E4,3.8880562E4,1.6021433E5,3.8981395E4,0E0,0E0,0E0,0E0,0E0,0E0,0E0,0E0],"parents":[2147483647,0,0,1,1,2,2,3,3,4,4,5,5,6,6],"right_children":[2,4,6,8,10,12,14,-1,-1,-1,-1,-1,-1,-1,-1],"split_conditions":[3E0,8E0,8E0,3E0,9.2E1,3E0,1.2E1,-2.4124925E-1,9.838715E-3,-1.8539724E-1,-6.6441345E-1,-6.5503724E-2,2.6287943E-1,1.71322E-2,-1.9712092E-1],"split_indices":[2,3,3,3,6,3,3,0,0,0,0,0,0,0,0],"split_type":[0,0,0,0,0,0,0,0,0,0,0,0,0,0,0],"sum_hessian":[6.02327E5,2.57885E5,3.44442E5,1.48979E5,1.08906E5,2.00147E5,1.44295E5,4.0263E4,1.08716E5,1.0413E5,4.776E3,5.5357E4,1.4479E5,1.15766E5,2.8529E4],"tree_param":{"num_deleted":"0","num_feature":"8","num_nodes":"15","size_leaf_vector":"1"}},{"base_weights":[-2.249926E-3,-2.3715325E-1,1.4125122E0,-1.2622753E0,-3.3567205E-2,1.1416473E0,3.9938457E0,-1.9224569E-1,-3.6404788E-1,1.5740013E-1,-4.6159323E-2,2.8668076E-1,9.049023E-2,6.005851E-1,1.9767494E0],"categories":[0,1,2,3,4,5,6,8,9,10,11,13,15,16,18,19,20,22,23,25,26,28,29,30,31,32,33,34,36,38,39,40,41,42,43,45,46,47,48,49,0,2,3,4,15,16,18,19,20,22,25,26,29,31,33,36,38,39,40,41,43,46,48],"categories_nodes":[4,5],"categories_segments":[0,40],"categories_sizes":[40,23],"default_left":[0,0,0,0,1,1,0,0,0,0,0,0,0,0,0],"id":27,"left_children":[1,3,5,7,9,11,13,-1,-1,-1,-1,-1,-1,-1,-1],"loss_changes":[2.0032661E5,1.0788895E5,6.000992E4,7.4677344E3,1.0596205E5,2.7728516E4,2.1973188E4,0E0,0E0,0E0,0E0,0E0,0E0,0E0,0E0],"parents":[2147483647,0,0,1,1,2,2,3,3,4,4,5,5,6,6],"right_children":[2,4,6,8,10,12,14,-1,-1,-1,-1,-1,-1,-1,-1],"split_conditions":[6E0,1E0,8.928571E1,1.2E1,1E-45,1E-45,1.2971428E2,-1.9224569E-1,-3.6404788E-1,1.5740013E-1,-4.6159323E-2,2.8668076E-1,9.049023E-2,6.005851E-1,1.9767494E0],"split_indices":[2,2,7,3,1,1,7,0,0,0,0,0,0,0,0],"split_type":[0,0,0,0,1,1,0,0,0,0,0,0,0,0,0],"sum_hessian":[6.02788E5,5.16955E5,8.5833E4,8.5654E4,4.31301E5,7.7683E4,8.15E3,7.8182E4,7.472E3,8.6125E4,3.45176E5,3.8384E4,3.9299E4,7.825E3,3.25E2],"tree_param":{"num_deleted":"0","num_feature":"8","num_nodes":"15","size_leaf_vector":"1"}},{"base_weights":[3.4484444E-3,-3.1242767E-1,7.940337E-1,4.21456E-2,-8.0169016E-1,1.2364388E0,1.8707278E-1,-1.6115572E-1,7.027233E-2,-9.127602E-2,-2.995043E-1,8.798189E-3,2.7525997E-1,7.337162E-2,-1.448869E-1],"categories":[],"categories_nodes":[],"categories_segments":[],"categories_sizes":[],"default_left":[0,0,0,0,0,0,0,0,0,0,0,0,0,0,0],"id":28,"left_children":[1,3,5,7,9,11,13,-1,-1,-1,-1,-1,-1,-1,-1],"loss_changes":[1.5034714E5,7.4626016E4,4.6151797E4,9.8531266E4,4.5419008E4,5.175903E4,2.0138318E4,0E0,0E0,0E0,0E0,0E0,0E0,0E0,0E0],"parents":[2147483647,0,0,1,1,2,2,3,3,4,4,5,5,6,6],"right_children":[2,4,6,8,10,12,14,-1,-1,-1,-1,-1,-1,-1,-1],"split_conditions":[5E0,8E0,8E0,3E0,7.1E1,3E0,8.7E1,-1.6115572E-1,7.027233E-2,-9.127602E-2,-2.995043E-1,8.798189E-3,2.7525997E-1,7.337162E-2,-1.448869E-1],"split_indices":[2,3,3,3,6,3,6,0,0,0,0,0,0,0,0],"split_type":[0,0,0,0,0,0,0,0,0,0,0,0,0,0,0],"sum_hessian":[6.02044E5,4.30171E5,1.71873E5,2.49417E5,1.80754E5,9.9412E4,7.2461E4,6.8277E4,1.8114E5,1.45735E5,3.5019E4,2.6961E4,7.2451E4,5.8299E4,1.4162E4],"tree_param":{"num_deleted":"0","num_feature":"8","num_nodes":"15","size_leaf_vector":"1"}},{"base_weights":[5.026268E-3,-8.051973E-2,2.113421E0,-2.9551551E0,-3.4379024E-2,3.2884526E0,-1.2515509E-1,-6.2927514E-1,-3.5070384E-1,1.2170848E-2,-1.9327278E-1,4.352804E-1,1.2538028E0,2.207544E-2,-2.3549738E0],"categories":[],"categories_nodes":[],"categories_segments":[],"categories_sizes":[],"default_left":[0,0,0,0,0,0,0,0,0,0,0,0,0,0,0],"id":29,"left_children":[1,3,5,7,9,11,13,-1,-1,-1,-1,-1,-1,-1,-1],"loss_changes":[1.0864827E5,7.6782945E4,6.1783188E4,6.566117E3,7.065541E4,4.265664E4,2.9851121E4,0E0,0E0,0E0,0E0,0E0,0E0,0E0,0E0],"parents":[2147483647,0,0,1,1,2,2,3,3,4,4,5,5,6,6],"right_children":[2,4,6,8,10,12,14,-1,-1,-1,-1,-1,-1,-1,-1],"split_conditions":[1.04E2,1.3E1,8E0,1.1428572E1,1.2E1,1.2971428E2,1.2E1,-6.2927514E-1,-3.5070384E-1,1.2170848E-2,-1.9327278E-1,4.352804E-1,1.2538028E0,2.207544E-2,-2.3549738E0],"split_indices":[7,7,3,7,3,7,3,0,0,0,0,0,0,0,0],"split_type":[0,0,0,0,0,0,0,0,0,0,0,0,0,0,0],"sum_hessian":[6.02379E5,5.78892E5,2.3487E4,9.144E3,5.69748E5,1.5402E4,8.085E3,4.412E3,4.732E3,5.20343E5,4.9405E4,1.3435E4,1.967E3,7.941E3,1.44E2],"tree_param":{"num_deleted":"0","num_feature":"8","num_nodes":"15","size_leaf_vector":"1"}},{"base_weights":[-9.3679025E-4,-1.7556134E-1,1.052292E0,1.3892426E-1,-6.469928E-1,1.9314867E0,5.559522E-1,1.7814985E-1,-1.59167E-2,-6.861084E-2,-2.7154726E-1,4.5447144E-1,1.804655E-1,1.6016543E-1,-1.2594436E-2],"categories":[0,4,5,6,0,1,2,3,4,6,8,13,15,16,18,19,20,22,23,25,26,29,30,31,33,36,38,39,40,41,42,43,46,47,48,49,0,1,2,3,4,5,6,8,9,10,11,13,15,16,18,19,20,22,23,25,26,28,29,30,31,32,33,34,36,38,39,40,41,42,43,45,46,47,48,49,0,4,5,6,8,0,4,5,6],"categories_nodes":[1,2,3,5,6],"categories_segments":[0,4,36,76,81],"categories_sizes":[4,32,40,5,4],"default_left":[0,1,1,1,0,1,1,0,0,0,0,0,0,0,0],"id":30,"left_children":[1,3,5,7,9,11,13,-1,-1,-1,-1,-1,-1,-1,-1],"loss_changes":[1.1069883E5,7.654398E4,3.7353E4,6.911736E4,4.7657883E4,2.150529E4,1.4525199E4,0E0,0E0,0E0,0E0,0E0,0E0,0E0,0E0],"parents":[2147483647,0,0,1,1,2,2,3,3,4,4,5,5,6,6],"right_children":[2,4,6,8,10,12,14,-1,-1,-1,-1,-1,-1,-1,-1],"split_conditions":[6E0,1E-45,1E-45,1E-45,5.7E1,1E-45,1E-45,1.7814985E-1,-1.59167E-2,-6.861084E-2,-2.7154726E-1,4.5447144E-1,1.804655E-1,1.6016543E-1,-1.2594436E-2],"split_indices":[2,0,1,1,6,0,0,0,0,0,0,0,0,0,0],"split_type":[0,1,1,1,0,1,1,0,0,0,0,0,0,0,0],"sum_hessian":[6.01885E5,5.16286E5,8.5599E4,3.09694E5,2.06592E5,3.0886E4,5.4713E4,6.1797E4,2.47897E5,1.68305E5,3.8287E4,1.5401E4,1.5485E4,3.2895E4,2.1818E4],"tree_param":{"num_deleted":"0","num_feature":"8","num_nodes":"15","size_leaf_vector":"1"}},{"base_weights":[-1.3125993E-3,-4.6407333E-1,3.4525E-1,-9.8133653E-1,-2.0673583E-1,6.2017643E-1,-2.9555833E-1,-1.2493091E-1,-1.9803606E-1,3.7468124E-2,-1.05518185E-1,1.6652822E-1,1.2493821E-2,-2.677496E-1,-2.369656E-2],"categories":[4,5,6],"categories_nodes":[2],"categories_segments":[0],"categories_sizes":[3],"default_left":[0,0,1,0,0,0,0,0,0,0,0,0,0,0,0],"id":31,"left_children":[1,3,5,7,9,11,13,-1,-1,-1,-1,-1,-1,-1,-1],"loss_changes":[9.6528445E4,3.430749E4,6.063139E4,4.242992E3,3.2637586E4,5.164454E4,2.0863775E4,0E0,0E0,0E0,0E0,0E0,0E0,0E0,0E0],"parents":[2147483647,0,0,1,1,2,2,3,3,4,4,5,5,6,6],"right_children":[2,4,6,8,10,12,14,-1,-1,-1,-1,-1,-1,-1,-1],"split_conditions":[3E0,1E0,1E-45,5.6E1,2E0,8E0,1.6E1,-1.2493091E-1,-1.9803606E-1,3.7468124E-2,-1.05518185E-1,1.6652822E-1,1.2493821E-2,-2.677496E-1,-2.369656E-2],"split_indices":[2,2,0,5,2,3,5,0,0,0,0,0,0,0,0],"split_type":[0,0,1,0,0,0,0,0,0,0,0,0,0,0,0],"sum_hessian":[6.01888E5,2.57736E5,3.44152E5,8.5624E4,1.72112E5,2.40829E5,1.03323E5,4.3248E4,4.2376E4,8.6157E4,8.5955E4,1.39657E5,1.01172E5,1.051E4,9.2813E4],"tree_param":{"num_deleted":"0","num_feature":"8","num_nodes":"15","size_leaf_vector":"1"}},{"base_weights":[6.94845E-3,2.5436142E-1,-6.291452E-1,6.092209E-1,-2.3379582E-1,-1.7214432E0,-5.2250224E-1,-5.2911434E-2,1.5754606E-1,7.190106E-2,-1.399122E-1,-3.8919646E-1,-2.062048E-1,-6.0143337E-2,-2.4768025E-1],"categories":[0,3,4,15,22,26,31,33,36,39,40,43,46,48],"categories_nodes":[0],"categories_segments":[0],"categories_sizes":[14],"default_left":[1,0,0,0,0,0,0,0,0,0,0,0,0,0,0],"id":32,"left_children":[1,3,5,7,9,11,13,-1,-1,-1,-1,-1,-1,-1,-1],"loss_changes":[9.468795E4,7.503768E4,1.9625344E4,8.186958E4,7.574675E4,4.524996E3,2.3638855E4,0E0,0E0,0E0,0E0,0E0,0E0,0E0,0E0],"parents":[2147483647,0,0,1,1,2,2,3,3,4,4,5,5,6,6],"right_children":[2,4,6,8,10,12,14,-1,-1,-1,-1,-1,-1,-1,-1],"split_conditions":[1E-45,8E0,1.3E1,3E0,5.7E1,3E0,3.9E1,-5.2911434E-2,1.5754606E-1,7.190106E-2,-1.399122E-1,-3.8919646E-1,-2.062048E-1,-6.0143337E-2,-2.4768025E-1],"split_indices":[1,3,5,3,6,3,6,0,0,0,0,0,0,0,0],"split_type":[1,0,0,0,0,0,0,0,0,0,0,0,0,0,0],"sum_hessian":[6.01658E5,4.33173E5,1.68485E5,2.50833E5,1.8234E5,1.4985E4,1.535E5,6.8562E4,1.82271E5,8.7401E4,9.4939E4,6.256E3,8.729E3,1.32515E5,2.0985E4],"tree_param":{"num_deleted":"0","num_feature":"8","num_nodes":"15","size_leaf_vector":"1"}},{"base_weights":[-9.69148E-3,4.191016E-1,-2.9546767E-1,2.4975239E-1,1.4422454E0,-5.8896804E-1,9.56603E-2,-9.530356E-2,6.817578E-2,2.6461607E-1,-7.691256E-2,-7.3432945E-2,-2.2389305E-1,5.059645E-2,-1.1842146E-1],"categories":[0,3,4,5,6,8],"categories_nodes":[0],"categories_segments":[0],"categories_sizes":[6],"default_left":[1,0,0,0,0,0,0,0,0,0,0,0,0,0,0],"id":33,"left_children":[1,3,5,7,9,11,13,-1,-1,-1,-1,-1,-1,-1,-1],"loss_changes":[7.379363E4,4.1729473E4,4.1483613E4,2.8394246E4,1.1079305E4,2.2662406E4,2.6897605E4,0E0,0E0,0E0,0E0,0E0,0E0,0E0,0E0],"parents":[2147483647,0,0,1,1,2,2,3,3,4,4,5,5,6,6],"right_children":[2,4,6,8,10,12,14,-1,-1,-1,-1,-1,-1,-1,-1],"split_conditions":[1E-45,6E0,4E0,1E0,1.2E1,6.3E1,7.1E1,-9.530356E-2,6.817578E-2,2.6461607E-1,-7.691256E-2,-7.3432945E-2,-2.2389305E-1,5.059645E-2,-1.1842146E-1],"split_indices":[0,2,2,2,3,6,6,0,0,0,0,0,0,0,0],"split_type":[1,0,0,0,0,0,0,0,0,0,0,0,0,0,0],"sum_hessian":[6.02204E5,2.40838E5,3.61366E5,2.06637E5,3.4201E4,2.06448E5,1.54918E5,3.4345E4,1.72292E5,3.1414E4,2.787E3,1.74531E5,3.1917E4,1.22938E5,3.198E4],"tree_param":{"num_deleted":"0","num_feature":"8","num_nodes":"15","size_leaf_vector":"1"}},{"base_weights":[-5.907387E-3,3.3914545E-1,-4.100909E-1,-7.710756E-1,5.2372277E-1,-2.2857544E-1,-1.3035989E0,-9.762159E-2,-8.3937526E-1,7.983829E-2,9.092769E-1,1.3410483E-2,-1.4964019E-1,-1.847249E-1,-9.960435E-1],"categories":[0,2,3,4,15,16,18,19,20,22,25,26,29,31,33,36,38,39,40,41,43,46,48,0,3,4,26,40,46],"categories_nodes":[0,5],"categories_segments":[0,23],"categories_sizes":[23,6],"default_left":[1,0,0,0,0,1,0,0,0,0,0,0,0,0,0],"id":34,"left_children":[1,3,5,7,9,11,13,-1,-1,-1,-1,-1,-1,-1,-1],"loss_changes":[8.400082E4,6.658396E4,4.498785E4,3.5483258E4,5.2290242E4,4.8846938E4,3.9802664E4,0E0,0E0,0E0,0E0,0E0,0E0,0E0,0E0],"parents":[2147483647,0,0,1,1,2,2,3,3,4,4,5,5,6,6],"right_children":[2,4,6,8,10,12,14,-1,-1,-1,-1,-1,-1,-1,-1],"split_conditions":[1E-45,1E0,4.5E1,9.2E1,1.2971428E2,1E-45,1.2E1,-9.762159E-2,-8.3937526E-1,7.983829E-2,9.092769E-1,1.3410483E-2,-1.4964019E-1,-1.847249E-1,-9.960435E-1],"split_indices":[1,2,6,6,7,1,3,0,0,0,0,0,0,0,0],"split_type":[1,0,0,0,0,1,0,0,0,0,0,0,0,0,0],"sum_hessian":[6.02307E5,3.24921E5,2.77386E5,4.6318E4,2.78603E5,2.30551E5,4.6835E4,4.451E4,1.808E3,2.7654E5,2.063E3,1.58527E5,7.2024E4,4.5145E4,1.69E3],"tree_param":{"num_deleted":"0","num_feature":"8","num_nodes":"15","size_leaf_vector":"1"}},{"base_weights":[4.3730675E-3,2.1807434E-1,-4.9454355E-1,1.8461272E-1,3.120498E0,-3.0215147E-1,-1.4181457E0,4.992485E-2,-1.1494796E-1,6.2670857E-1,1.4524491E-1,-3.962341E-1,-3.567401E-2,-2.0665972E-1,-6.5499824E-1],"categories":[4,5,6,0,2,3,4,5,6,8,9],"categories_nodes":[0,4],"categories_segments":[0,3],"categories_sizes":[3,8],"default_left":[1,0,0,0,1,0,0,0,0,0,0,0,0,0,0],"id":35,"left_children":[1,3,5,7,9,11,13,-1,-1,-1,-1,-1,-1,-1,-1],"loss_changes":[6.414952E4,4.0910164E4,3.2060855E4,4.40219E4,7.4758555E3,2.6754064E4,1.2743371E4,0E0,0E0,0E0,0E0,0E0,0E0,0E0,0E0],"parents":[2147483647,0,0,1,1,2,2,3,3,4,4,5,5,6,6],"right_children":[2,4,6,8,10,12,14,-1,-1,-1,-1,-1,-1,-1,-1],"split_conditions":[1E-45,1.23E2,5.7E1,9.2E1,1E-45,1.2285714E1,8.9E1,4.992485E-2,-1.1494796E-1,6.2670857E-1,1.4524491E-1,-3.962341E-1,-3.567401E-2,-2.0665972E-1,-6.5499824E-1],"split_indices":[0,7,6,6,0,7,6,0,0,0,0,0,0,0,0],"split_type":[1,0,0,0,1,0,0,0,0,0,0,0,0,0,0],"sum_hessian":[6.01668E5,4.21239E5,1.80429E5,4.16439E5,4.8E3,1.49325E5,3.1104E4,3.66894E5,4.9545E4,3.659E3,1.141E3,5.769E3,1.43556E5,2.929E4,1.814E3],"tree_param":{"num_deleted":"0","num_feature":"8","num_nodes":"15","size_leaf_vector":"1"}},{"base_weights":[-4.791117E-3,8.914187E-2,-1.0139952E0,-9.9509776E-1,1.9369625E-1,-5.040121E-1,-5.011866E0,-1.293294E-1,-4.0635005E-1,-5.5491436E-2,6.079264E-2,-5.1739633E-2,-2.8132635E-1,-6.1789244E-1,-1.4035237E0],"categories":[],"categories_nodes":[],"categories_segments":[],"categories_sizes":[],"default_left":[0,0,0,0,0,0,0,0,0,0,0,0,0,0,0],"id":36,"left_children":[1,3,5,7,9,11,13,-1,-1,-1,-1,-1,-1,-1,-1],"loss_changes":[5.710623E4,6.2474785E4,1.0458011E5,1.4872516E4,4.719378E4,1.0391995E4,2.558914E4,0E0,0E0,0E0,0E0,0E0,0E0,0E0,0E0],"parents":[2147483647,0,0,1,1,2,2,3,3,4,4,5,5,6,6],"right_children":[2,4,6,8,10,12,14,-1,-1,-1,-1,-1,-1,-1,-1],"split_conditions":[1.2E1,2E0,7.1E1,5.8E1,2.014E3,5.7E1,9.2E1,-1.293294E-1,-4.0635005E-1,-5.5491436E-2,6.079264E-2,-5.1739633E-2,-2.8132635E-1,-6.1789244E-1,-1.4035237E0],"split_indices":[3,3,6,6,4,6,6,0,0,0,0,0,0,0,0],"split_type":[0,0,0,0,0,0,0,0,0,0,0,0,0,0,0],"sum_hessian":[6.024E5,5.51106E5,5.1294E4,4.8469E4,5.02637E5,4.5492E4,5.802E3,4.2514E4,5.955E3,1.25318E5,3.77319E5,3.9349E4,6.143E3,4.29E3,1.512E3],"tree_param":{"num_deleted":"0","num_feature":"8","num_nodes":"15","size_leaf_vector":"1"}},{"base_weights":[-5.824517E-3,5.7391757E-1,-2.3116441E-1,1.6124519E0,3.1425276E-1,-4.0916938E-1,2.15635E-1,1.9415066E-1,4.728489E-1,-1.4394523E-1,8.402802E-2,-4.6047356E-2,-1.413191E-1,5.5301074E-2,-6.442533E-2],"categories":[0,1,2,3,4,5,6,8,13,15,16,18,19,20,22,23,25,26,29,30,31,32,33,34,36,38,39,40,41,42,43,45,46,47,48,49,0,2,3,4,5,6,8,9,0,3,4,15,26,33,40,46,0,3,4,26,40,46],"categories_nodes":[0,1,5,6],"categories_segments":[0,36,44,52],"categories_sizes":[36,8,8,6],"default_left":[1,1,0,0,0,1,1,0,0,0,0,0,0,0,0],"id":37,"left_children":[1,3,5,7,9,11,13,-1,-1,-1,-1,-1,-1,-1,-1],"loss_changes":[7.867134E4,4.545386E4,3.448928E4,1.8368953E4,3.1728502E4,1.80228E4,9.105109E3,0E0,0E0,0E0,0E0,0E0,0E0,0E0,0E0],"parents":[2147483647,0,0,1,1,2,2,3,3,4,4,5,5,6,6],"right_children":[2,4,6,8,10,12,14,-1,-1,-1,-1,-1,-1,-1,-1],"split_conditions":[1E-45,1E-45,5E0,2.016E3,1E0,1E-45,1E-45,1.9415066E-1,4.728489E-1,-1.4394523E-1,8.402802E-2,-4.6047356E-2,-1.413191E-1,5.5301074E-2,-6.442533E-2],"split_indices":[1,0,2,4,2,1,1,0,0,0,0,0,0,0,0],"split_type":[1,1,0,0,0,1,1,0,0,0,0,0,0,0,0],"sum_hessian":[6.02202E5,1.68554E5,4.33648E5,3.3713E4,1.34841E5,3.10103E5,1.23545E5,2.5177E4,8.536E3,1.9184E4,1.15657E5,2.41331E5,6.8772E4,1.03012E5,2.0533E4],"tree_param":{"num_deleted":"0","num_feature":"8","num_nodes":"15","size_leaf_vector":"1"}},{"base_weights":[-2.913017E-3,-3.2621953E-1,2.394589E-1,-2.4970557E-1,-1.892908E0,8.506072E-1,8.659607E-2,-9.263326E-3,-1.0998105E-1,-7.272761E-1,-2.3825356E-1,1.2332375E-1,6.4186394E-1,3.2046027E-2,-1.1694796E-1],"categories":[0,2,3,4,5,6,8,9,4,5,6],"categories_nodes":[2,3],"categories_segments":[0,8],"categories_sizes":[8,3],"default_left":[0,0,1,1,0,0,0,0,0,0,0,0,0,0,0],"id":38,"left_children":[1,3,5,7,9,11,13,-1,-1,-1,-1,-1,-1,-1,-1],"loss_changes":[4.7211133E4,3.094404E4,3.216918E4,1.998889E4,1.3462973E4,2.0955172E4,2.3897973E4,0E0,0E0,0E0,0E0,0E0,0E0,0E0,0E0],"parents":[2147483647,0,0,1,1,2,2,3,3,4,4,5,5,6,6],"right_children":[2,4,6,8,10,12,14,-1,-1,-1,-1,-1,-1,-1,-1],"split_conditions":[3E0,9.2E1,1E-45,1E-45,1E0,1.3E2,8.7E1,-9.263326E-3,-1.0998105E-1,-7.272761E-1,-2.3825356E-1,1.2332375E-1,6.4186394E-1,3.2046027E-2,-1.1694796E-1],"split_indices":[2,6,0,0,2,5,6,0,0,0,0,0,0,0,0],"split_type":[0,0,1,1,0,0,0,0,0,0,0,0,0,0,0],"sum_hessian":[6.02485E5,2.58142E5,3.44343E5,2.46123E5,1.2019E4,6.8895E4,2.75448E5,1.68579E5,7.7544E4,1.781E3,1.0238E4,6.6727E4,2.168E3,2.42488E5,3.296E4],"tree_param":{"num_deleted":"0","num_feature":"8","num_nodes":"15","size_leaf_vector":"1"}},{"base_weights":[4.6536583E-3,7.68933E-1,-1.4090589E-1,1.7962991E0,5.115649E-1,-7.4661905E-3,-8.9195645E-1,-6.2139504E-2,3.6227587E-1,1.4185129E-1,-4.5748264E-2,6.8208076E-2,-5.642309E-2,-1.1197296E-1,-1.0900222E0],"categories":[0,1,2,3,4,5,6,7,8,9,10,11,13,15,16,18,19,20,22,23,25,26,28,29,30,31,32,33,34,35,36,38,39,40,41,42,43,45,46,47,48,49,0,2,3,4,5,6,8,9,0,2,3,4,15,16,18,20,22,26,29,33,36,38,39,40,41,43,46,48],"categories_nodes":[0,1,5],"categories_segments":[0,42,50],"categories_sizes":[42,8,20],"default_left":[1,1,0,0,0,1,0,0,0,0,0,0,0,0,0],"id":39,"left_children":[1,3,5,7,9,11,13,-1,-1,-1,-1,-1,-1,-1,-1],"loss_changes":[6.701221E4,2.548014E4,5.0711094E4,1.7227648E4,2.1463648E4,6.1092836E4,9.210103E4,0E0,0E0,0E0,0E0,0E0,0E0,0E0,0E0],"parents":[2147483647,0,0,1,1,2,2,3,3,4,4,5,5,6,6],"right_children":[2,4,6,8,10,12,14,-1,-1,-1,-1,-1,-1,-1,-1],"split_conditions":[1E-45,1E-45,7.1E1,3E0,8.7E1,1E-45,1.2E1,-6.2139504E-2,3.6227587E-1,1.4185129E-1,-4.5748264E-2,6.8208076E-2,-5.642309E-2,-1.1197296E-1,-1.0900222E0],"split_indices":[1,0,6,3,6,1,3,0,0,0,0,0,0,0,0],"split_type":[1,1,0,0,0,1,0,0,0,0,0,0,0,0,0],"sum_hessian":[6.02365E5,9.6368E4,5.05997E5,1.9304E4,7.7064E4,4.2966E5,7.6337E4,3.064E3,1.624E4,5.3294E4,2.377E4,1.9029E5,2.3937E5,7.3648E4,2.689E3],"tree_param":{"num_deleted":"0","num_feature":"8","num_nodes":"15","size_leaf_vector":"1"}},{"base_weights":[1.2219072E-2,-9.980392E-2,6.8633693E-1,1.0076197E-1,-4.003287E-1,5.281061E-1,2.2048304E0,2.810988E-2,-2.1907435E-1,-4.069057E-2,-2.8204507E-1,9.774507E-2,-6.7278904E-1,8.657228E-1,2.2025387E-1],"categories":[0,4,5,6],"categories_nodes":[1],"categories_segments":[0],"categories_sizes":[4],"default_left":[0,1,0,0,0,0,0,0,0,0,0,0,0,0,0],"id":40,"left_children":[1,3,5,7,9,11,13,-1,-1,-1,-1,-1,-1,-1,-1],"loss_changes":[4.5483625E4,3.113046E4,2.062046E4,3.1319855E4,4.1532766E4,2.4186256E4,2.1445066E4,0E0,0E0,0E0,0E0,0E0,0E0,0E0,0E0],"parents":[2147483647,0,0,1,1,2,2,3,3,4,4,5,5,6,6],"right_children":[2,4,6,8,10,12,14,-1,-1,-1,-1,-1,-1,-1,-1],"split_conditions":[6E0,1E-45,8.928571E1,1.1E2,6.6E1,1.09E2,1.1E2,2.810988E-2,-2.1907435E-1,-4.069057E-2,-2.8204507E-1,9.774507E-2,-6.7278904E-1,8.657228E-1,2.2025387E-1],"split_indices":[2,0,7,6,6,6,6,0,0,0,0,0,0,0,0],"split_type":[0,1,0,0,0,0,0,0,0,0,0,0,0,0,0],"sum_hessian":[6.02297E5,5.16472E5,8.5825E4,3.0975E5,2.06722E5,7.7727E4,8.098E3,2.95256E5,1.4494E4,1.85281E5,2.1441E4,7.6614E4,1.113E3,1.777E3,6.321E3],"tree_param":{"num_deleted":"0","num_feature":"8","num_nodes":"15","size_leaf_vector":"1"}},{"base_weights":[3.1052094E-3,1.5991119E-1,-3.6317647E-1,-5.2210623E-1,2.7311388E-1,-1.8937653E-1,-1.1981114E0,-2.4817748E-2,-2.8951153E-1,2.0589683E-2,1.24196775E-1,-2.8870106E-1,-2.0827128E-2,-5.405496E-1,-1.6559024E-1],"categories":[4,5,6],"categories_nodes":[0],"categories_segments":[0],"categories_sizes":[3],"default_left":[1,0,0,0,0,0,0,0,0,0,0,0,0,0,0],"id":41,"left_children":[1,3,5,7,9,11,13,-1,-1,-1,-1,-1,-1,-1,-1],"loss_changes":[3.4609965E4,3.2577527E4,2.6212592E4,2.7657637E4,2.5836605E4,1.4667123E4,1.234916E4,0E0,0E0,0E0,0E0,0E0,0E0,0E0,0E0],"parents":[2147483647,0,0,1,1,2,2,3,3,4,4,5,5,6,6],"right_children":[2,4,6,8,10,12,14,-1,-1,-1,-1,-1,-1,-1,-1],"split_conditions":[1E-45,1E0,5.7E1,6.2E1,7.685714E1,1.2285714E1,4.8857143E1,-2.4817748E-2,-2.8951153E-1,2.0589683E-2,1.24196775E-1,-2.8870106E-1,-2.0827128E-2,-5.405496E-1,-1.6559024E-1],"split_indices":[0,2,6,6,7,7,7,0,0,0,0,0,0,0,0],"split_type":[1,0,0,0,0,0,0,0,0,0,0,0,0,0,0],"sum_hessian":[6.0259E5,4.21952E5,1.80638E5,6.0066E4,3.61886E5,1.49516E5,3.1122E4,4.6247E4,1.3819E4,2.77187E5,8.4699E4,5.728E3,1.43788E5,2.581E3,2.8541E4],"tree_param":{"num_deleted":"0","num_feature":"8","num_nodes":"15","size_leaf_vector":"1"}},{"base_weights":[-8.286794E-5,5.5872095E-1,-1.7635538E-1,-2.3821785E-1,8.181892E-1,-1.0080985E-1,-9.849096E-1,1.347779E-2,-2.371494E-1,-6.428611E-2,1.7286976E-1,-1.3498686E-1,-5.1056626E-3,-1.3077393E-1,-4.7448778E-1],"categories":[0,1,2,3,4,5,6,8,10,11,13,15,16,18,19,20,22,23,25,26,28,29,30,31,33,34,36,38,39,40,41,42,43,45,46,47,48,49],"categories_nodes":[0],"categories_segments":[0],"categories_sizes":[38],"default_left":[1,0,0,0,0,0,0,0,0,0,0,0,0,0,0],"id":42,"left_children":[1,3,5,7,9,11,13,-1,-1,-1,-1,-1,-1,-1,-1],"loss_changes":[5.933026E4,2.9867344E4,2.796891E4,1.3707585E4,3.094568E4,2.1059246E4,1.4039113E4,0E0,0E0,0E0,0E0,0E0,0E0,0E0,0E0],"parents":[2147483647,0,0,1,1,2,2,3,3,4,4,5,5,6,6],"right_children":[2,4,6,8,10,12,14,-1,-1,-1,-1,-1,-1,-1,-1],"split_conditions":[1E-45,2.014E3,1.2E1,8.6E1,3E0,2E0,5.6E1,1.347779E-2,-2.371494E-1,-6.428611E-2,1.7286976E-1,-1.3498686E-1,-5.1056626E-3,-1.3077393E-1,-4.7448778E-1],"split_indices":[1,4,3,5,3,3,5,0,0,0,0,0,0,0,0],"split_type":[1,0,0,0,0,0,0,0,0,0,0,0,0,0,0],"sum_hessian":[6.02325E5,1.44438E5,4.57887E5,3.5476E4,1.08962E5,4.18762E5,3.9125E4,2.8033E4,7.443E3,1.7708E4,9.1254E4,3.69E4,3.81862E5,3.5606E4,3.519E3],"tree_param":{"num_deleted":"0","num_feature":"8","num_nodes":"15","size_leaf_vector":"1"}},{"base_weights":[5.3088996E-3,4.136135E-1,-1.6968612E-1,7.1424097E-1,-2.3552527E-1,1.9465148E-2,-9.319747E-1,1.9803448E-1,6.380338E-3,-6.814296E-3,-9.589236E-1,6.294083E-2,-5.737445E-2,-1.2472439E-1,-8.2111293E-1],"categories":[0,1,2,3,4,5,6,8,13,15,16,18,19,20,22,23,25,26,29,30,31,33,34,36,38,39,40,41,42,43,45,46,47,48,49,4,5,6,0,3,4,15,16,22,26,33,36,39,40,43,46,48],"categories_nodes":[0,3,5],"categories_segments":[0,35,38],"categories_sizes":[35,3,14],"default_left":[1,0,0,1,0,1,0,0,0,0,0,0,0,0,0],"id":43,"left_children":[1,3,5,7,9,11,13,-1,-1,-1,-1,-1,-1,-1,-1],"loss_changes":[4.3045742E4,3.5271383E4,6.0805336E4,4.1046168E4,6.2217316E4,4.5361637E4,5.8773484E4,0E0,0E0,0E0,0E0,0E0,0E0,0E0,0E0],"parents":[2147483647,0,0,1,1,2,2,3,3,4,4,5,5,6,6],"right_children":[2,4,6,8,10,12,14,-1,-1,-1,-1,-1,-1,-1,-1],"split_conditions":[1E-45,8.7E1,5.7E1,1E-45,1.2E1,1E-45,1.2E1,1.9803448E-1,6.380338E-3,-6.814296E-3,-9.589236E-1,6.294083E-2,-5.737445E-2,-1.2472439E-1,-8.2111293E-1],"split_indices":[1,6,6,0,3,1,3,0,0,0,0,0,0,0,0],"split_type":[1,0,0,1,0,1,0,0,0,0,0,0,0,0,0],"sum_hessian":[6.02447E5,1.80739E5,4.21708E5,1.2353E5,5.7209E4,3.37871E5,8.3837E4,7.1468E4,5.2062E4,5.5296E4,1.913E3,1.70094E5,1.67777E5,8.0433E4,3.404E3],"tree_param":{"num_deleted":"0","num_feature":"8","num_nodes":"15","size_leaf_vector":"1"}},{"base_weights":[-1.5927355E-4,-4.533314E-1,1.480515E-1,-3.7978682E-1,-1.2301531E0,9.9733907E-1,5.384125E-2,-1.883653E-1,-5.239563E-2,-1.6675246E-1,-2.1492474E0,3.7431365E-1,1.1108819E-1,-1.1664043E-1,2.0486068E-2],"categories":[0,1,2,3,4,5,6,7,8,9,10,11,13,15,16,18,19,20,21,22,23,25,26,28,29,30,31,32,33,34,35,36,37,38,39,40,41,42,43,44,45,46,47,48,49,0,2,3,4,5,6,8,9],"categories_nodes":[2,5],"categories_segments":[0,45],"categories_sizes":[45,8],"default_left":[0,0,1,0,0,1,0,0,0,0,0,0,0,0,0],"id":44,"left_children":[1,3,5,7,9,11,13,-1,-1,-1,-1,-1,-1,-1,-1],"loss_changes":[4.0468523E4,8.483035E3,3.6327773E4,6.3139824E3,3.2653807E4,1.864666E4,2.2158955E4,0E0,0E0,0E0,0E0,0E0,0E0,0E0,0E0],"parents":[2147483647,0,0,1,1,2,2,3,3,4,4,5,5,6,6],"right_children":[2,4,6,8,10,12,14,-1,-1,-1,-1,-1,-1,-1,-1],"split_conditions":[2.014E3,1.2E1,1E-45,2E0,7.157143E1,1E-45,2E0,-1.883653E-1,-5.239563E-2,-1.6675246E-1,-2.1492474E0,3.7431365E-1,1.1108819E-1,-1.1664043E-1,2.0486068E-2],"split_indices":[4,3,1,3,7,0,3,0,0,0,0,0,0,0,0],"split_type":[0,0,1,0,0,1,0,0,0,0,0,0,0,0,0],"sum_hessian":[6.02522E5,1.48491E5,4.54031E5,1.3565E5,1.2841E4,4.5335E4,4.08696E5,9.932E3,1.25718E5,1.2614E4,2.27E2,9.067E3,3.6268E4,3.4711E4,3.73985E5],"tree_param":{"num_deleted":"0","num_feature":"8","num_nodes":"15","size_leaf_vector":"1"}},{"base_weights":[-6.5409555E-3,1.96346E-1,-2.8567305E-1,-3.1182808E-1,5.643357E-1,-1.8194635E-1,-1.0848211E0,-2.6450098E-2,-1.400307E-1,2.0726904E-1,4.3576404E-2,-9.379492E-3,-1.008096E-1,-2.4494956E-1,3.3569136E-3],"categories":[0,1,2,3,4,5,6,8,11,13,15,16,18,19,20,22,25,26,28,29,30,31,33,34,36,38,39,40,41,42,43,45,46,47,48],"categories_nodes":[4],"categories_segments":[0],"categories_sizes":[35],"default_left":[0,0,0,0,1,0,0,0,0,0,0,0,0,0,0],"id":45,"left_children":[1,3,5,7,9,11,13,-1,-1,-1,-1,-1,-1,-1,-1],"loss_changes":[3.4111027E4,6.5226758E4,2.1015254E4,1.1947361E4,4.221679E4,1.210205E4,1.3107375E4,0E0,0E0,0E0,0E0,0E0,0E0,0E0,0E0],"parents":[2147483647,0,0,1,1,2,2,3,3,4,4,5,5,6,6],"right_children":[2,4,6,8,10,12,14,-1,-1,-1,-1,-1,-1,-1,-1],"split_conditions":[8E0,4E0,8.6E1,5.6E1,1E-45,1.2E1,1.1E1,-2.6450098E-2,-1.400307E-1,2.0726904E-1,4.3576404E-2,-9.379492E-3,-1.008096E-1,-2.4494956E-1,3.3569136E-3],"split_indices":[3,3,5,5,1,3,3,0,0,0,0,0,0,0,0],"split_type":[0,0,0,0,1,0,0,0,0,0,0,0,0,0,0],"sum_hessian":[6.02323E5,3.48799E5,2.53524E5,1.46496E5,2.02303E5,2.24399E5,2.9125E4,1.14581E5,3.1915E4,6.0649E4,1.41654E5,1.74106E5,5.0293E4,2.1284E4,7.841E3],"tree_param":{"num_deleted":"0","num_feature":"8","num_nodes":"15","size_leaf_vector":"1"}},{"base_weights":[-4.9356245E-3,-1.6765125E-1,4.0219268E-1,3.3473552E-4,-6.2606406E-1,7.919792E-1,9.658705E-2,7.814003E-2,-4.901284E-2,1.6565023E-2,-1.5982947E-1,2.133695E-1,-2.4416163E-3,9.9248566E-2,-8.008764E-2],"categories":[0,2,3,4,8,9,15,16,18,19,20,22,25,26,29,31,33,36,38,39,40,41,42,43,45,46,47,48,0,2,3,4,15,16,18,19,20,22,25,26,29,31,33,36,38,39,40,41,43,46,48,0,2,3,4,5,6,8,9],"categories_nodes":[2,3,4],"categories_segments":[0,28,51],"categories_sizes":[28,23,8],"default_left":[0,0,1,1,1,0,0,0,0,0,0,0,0,0,0],"id":46,"left_children":[1,3,5,7,9,11,13,-1,-1,-1,-1,-1,-1,-1,-1],"loss_changes":[3.9898594E4,3.3136156E4,2.0485988E4,4.4763043E4,2.91477E4,3.0957004E4,2.8614994E4,0E0,0E0,0E0,0E0,0E0,0E0,0E0,0E0],"parents":[2147483647,0,0,1,1,2,2,3,3,4,4,5,5,6,6],"right_children":[2,4,6,8,10,12,14,-1,-1,-1,-1,-1,-1,-1,-1],"split_conditions":[5E0,6.2E1,1E-45,1E-45,1E-45,8.7E1,3.9E1,7.814003E-2,-4.901284E-2,1.6565023E-2,-1.5982947E-1,2.133695E-1,-2.4416163E-3,9.9248566E-2,-8.008764E-2],"split_indices":[2,6,1,1,0,6,6,0,0,0,0,0,0,0,0],"split_type":[0,0,1,1,1,0,0,0,0,0,0,0,0,0,0],"sum_hessian":[6.02276E5,4.303E5,1.71976E5,3.14904E5,1.15396E5,7.5578E4,9.6398E4,1.2152E5,1.93384E5,3.7318E4,7.8078E4,4.639E4,2.9188E4,5.1573E4,4.4825E4],"tree_param":{"num_deleted":"0","num_feature":"8","num_nodes":"15","size_leaf_vector":"1"}},{"base_weights":[-1.2573267E-3,2.9722226E-1,-2.0028502E-1,1.339549E0,2.0651877E-1,-7.318792E-2,-9.619633E-1,-1.00010425E-1,2.7896407E-1,6.0798433E-2,-1.467403E-1,6.795508E-2,-4.216099E-2,-1.2988926E-1,-9.3244356E-1],"categories":[0,3,4,5,6,8,0,1,2,3,4,5,6,7,8,9,10,11,13,15,16,18,19,20,21,22,23,24,25,26,28,29,30,31,32,33,34,35,36,37,38,39,40,41,42,43,44,45,46,47,48,49,0,1,2,3,4,5,6,8,13,15,16,18,19,20,22,25,26,29,30,31,33,36,38,39,40,41,42,43,45,46,47,48],"categories_nodes":[0,1,5],"categories_segments":[0,6,52],"categories_sizes":[6,46,32],"default_left":[1,1,0,0,0,1,0,0,0,0,0,0,0,0,0],"id":47,"left_children":[1,3,5,7,9,11,13,-1,-1,-1,-1,-1,-1,-1,-1],"loss_changes":[3.577114E4,2.2774107E4,3.497247E4,1.3514984E4,3.9941527E4,2.7690242E4,4.162415E4,0E0,0E0,0E0,0E0,0E0,0E0,0E0,0E0],"parents":[2147483647,0,0,1,1,2,2,3,3,4,4,5,5,6,6],"right_children":[2,4,6,8,10,12,14,-1,-1,-1,-1,-1,-1,-1,-1],"split_conditions":[1E-45,1E-45,7.1E1,3E0,9.2E1,1E-45,1.2E1,-1.00010425E-1,2.7896407E-1,6.0798433E-2,-1.467403E-1,6.795508E-2,-4.216099E-2,-1.2988926E-1,-9.3244356E-1],"split_indices":[0,1,6,3,6,1,3,0,0,0,0,0,0,0,0],"split_type":[1,1,0,0,0,1,0,0,0,0,0,0,0,0,0],"sum_hessian":[6.02148E5,2.40889E5,3.61259E5,1.9283E4,2.21606E5,3.09599E5,5.166E4,3.004E3,1.6279E4,1.92891E5,2.8715E4,8.4755E4,2.24844E5,4.9856E4,1.804E3],"tree_param":{"num_deleted":"0","num_feature":"8","num_nodes":"15","size_leaf_vector":"1"}},{"base_weights":[-7.9705636E-4,-2.5669876E-1,2.520471E-1,-4.0376925E-1,1.1283012E-1,-6.846391E-1,3.3878013E-1,-3.8787045E-2,-1.3040242E-1,4.9223147E-2,-5.305399E-2,-7.101636E-2,-3.073462E-1,9.9905744E-2,3.0298824E-3],"categories":[4,5,6],"categories_nodes":[4],"categories_segments":[0],"categories_sizes":[3],"default_left":[0,0,0,0,1,0,0,0,0,0,0,0,0,0,0],"id":48,"left_children":[1,3,5,7,9,11,13,-1,-1,-1,-1,-1,-1,-1,-1],"loss_changes":[3.896216E4,1.6264631E4,2.460776E4,1.4003969E4,6.945916E3,7.6827285E3,2.3953715E4,0E0,0E0,0E0,0E0,0E0,0E0,0E0,0E0],"parents":[2147483647,0,0,1,1,2,2,3,3,4,4,5,5,6,6],"right_children":[2,4,6,8,10,12,14,-1,-1,-1,-1,-1,-1,-1,-1],"split_conditions":[2.015E3,5E0,2E0,5.6E1,1E-45,5.6E1,8E0,-3.8787045E-2,-1.3040242E-1,4.9223147E-2,-5.305399E-2,-7.101636E-2,-3.073462E-1,9.9905744E-2,3.0298824E-3],"split_indices":[4,2,3,5,0,5,3,0,0,0,0,0,0,0,0],"split_type":[0,0,0,0,1,0,0,0,0,0,0,0,0,0,0],"sum_hessian":[6.02165E5,2.99273E5,3.02892E5,2.14073E5,8.52E4,2.5669E4,2.77223E5,1.4981E5,6.4263E4,5.9627E4,2.5573E4,2.1175E4,4.494E3,1.50493E5,1.2673E5],"tree_param":{"num_deleted":"0","num_feature":"8","num_nodes":"15","size_leaf_vector":"1"}},{"base_weights":[-3.4689943E-3,1.8648283E-1,-2.883368E-1,5.546875E-1,-3.9061658E-2,-1.4315133E-1,-8.111792E-1,-7.33008E-2,1.2187707E-1,1.8247338E-2,-8.54478E-2,-5.0675035E-3,-1.2536097E-1,-1.2189683E-1,-6.169756E-1],"categories":[0,4,5,6,0,1,2,3,4,5,6,8,13,15,16,18,19,20,22,25,26,29,30,31,33,36,38,39,40,41,42,43,46,47,48,0,3,4,26,40,46],"categories_nodes":[0,1,5],"categories_segments":[0,4,35],"categories_sizes":[4,31,6],"default_left":[1,1,0,0,0,1,0,0,0,0,0,0,0,0,0],"id":49,"left_children":[1,3,5,7,9,11,13,-1,-1,-1,-1,-1,-1,-1,-1],"loss_changes":[3.2593264E4,3.0010795E4,1.82914E4,2.5791324E4,1.620456E4,1.3138393E4,1.0600559E4,0E0,0E0,0E0,0E0,0E0,0E0,0E0,0E0],"parents":[2147483647,0,0,1,1,2,2,3,3,4,4,5,5,6,6],"right_children":[2,4,6,8,10,12,14,-1,-1,-1,-1,-1,-1,-1,-1],"split_conditions":[1E-45,1E-45,5.6E1,3E0,5.6E1,1E-45,1.2E1,-7.33008E-2,1.2187707E-1,1.8247338E-2,-8.54478E-2,-5.0675035E-3,-1.2536097E-1,-1.2189683E-1,-6.169756E-1],"split_indices":[0,1,5,3,5,1,3,0,0,0,0,0,0,0,0],"split_type":[1,1,0,0,0,1,0,0,0,0,0,0,0,0,0],"sum_hessian":[6.02337E5,3.61372E5,2.40965E5,1.37272E5,2.241E5,1.88596E5,5.2369E4,2.1669E4,1.15603E5,1.70806E5,5.3294E4,1.59695E5,2.8901E4,5.1177E4,1.192E3],"tree_param":{"num_deleted":"0","num_feature":"8","num_nodes":"15","size_leaf_vector":"1"}},{"base_weights":[1.3628688E-3,-1.3425517E-1,4.0427008E-1,-4.1454583E-2,-1.2529665E0,-3.2593945E-1,5.251162E-1,-4.0656295E-2,4.26498E-2,-4.9584594E-1,-1.597726E-1,-3.8472414E-2,-8.0739224E-1,8.15636E-2,7.186194E-1],"categories":[],"categories_nodes":[],"categories_segments":[],"categories_sizes":[],"default_left":[0,0,0,0,0,0,0,0,0,0,0,0,0,0,0],"id":50,"left_children":[1,3,5,7,9,11,13,-1,-1,-1,-1,-1,-1,-1,-1],"loss_changes":[3.28933E4,4.6757605E4,1.3377719E4,2.5830367E4,1.7055422E4,9.053906E3,1.4184258E4,0E0,0E0,0E0,0E0,0E0,0E0,0E0,0E0],"parents":[2147483647,0,0,1,1,2,2,3,3,4,4,5,5,6,6],"right_children":[2,4,6,8,10,12,14,-1,-1,-1,-1,-1,-1,-1,-1],"split_conditions":[2.016E3,9.2E1,1E0,4E0,7.8E1,1.01E2,1.4E2,-4.0656295E-2,4.26498E-2,-4.9584594E-1,-1.597726E-1,-3.8472414E-2,-8.0739224E-1,8.15636E-2,7.186194E-1],"split_indices":[4,6,2,2,5,6,5,0,0,0,0,0,0,0,0],"split_type":[0,0,0,0,0,0,0,0,0,0,0,0,0,0,0],"sum_hessian":[6.01982E5,4.50384E5,1.51598E5,4.15886E5,3.4498E4,2.1526E4,1.30072E5,2.46896E5,1.6899E5,4.714E3,2.9784E4,2.1106E4,4.2E2,1.29124E5,9.48E2],"tree_param":{"num_deleted":"0","num_feature":"8","num_nodes":"15","size_leaf_vector":"1"}},{"base_weights":[-7.8946655E-4,-2.437531E-1,1.8140306E-1,-1.5727092E-1,-9.4282377E-1,7.327141E-1,2.6079508E-2,-3.7617516E-2,1.33149E-1,-2.820226E-1,-9.840847E-2,1.7628966E-1,3.5876445E-2,2.0029025E-2,-8.23053E-2],"categories":[0,1,2,3,4,5,6,8,10,11,13,15,16,18,19,20,22,23,25,26,28,29,30,31,32,33,34,36,38,39,40,41,42,43,45,46,47,48,49,0,4,5,6,0,3,4,26,40,46],"categories_nodes":[2,5,6],"categories_segments":[0,39,43],"categories_sizes":[39,4,6],"default_left":[0,0,1,0,0,1,1,0,0,0,0,0,0,0,0],"id":51,"left_children":[1,3,5,7,9,11,13,-1,-1,-1,-1,-1,-1,-1,-1],"loss_changes":[2.6641145E4,1.5592175E4,2.9451508E4,1.5969184E4,7.5554863E3,1.3257664E4,1.3574183E4,0E0,0E0,0E0,0E0,0E0,0E0,0E0,0E0],"parents":[2147483647,0,0,1,1,2,2,3,3,4,4,5,5,6,6],"right_children":[2,4,6,8,10,12,14,-1,-1,-1,-1,-1,-1,-1,-1],"split_conditions":[3E0,8.6E1,1E-45,7.971429E1,9.4E1,1E-45,1E-45,-3.7617516E-2,1.33149E-1,-2.820226E-1,-9.840847E-2,1.7628966E-1,3.5876445E-2,2.0029025E-2,-8.23053E-2],"split_indices":[2,5,1,7,5,0,1,0,0,0,0,0,0,0,0],"split_type":[0,0,1,0,0,1,1,0,0,0,0,0,0,0,0],"sum_hessian":[6.01838E5,2.57906E5,3.43932E5,2.29514E5,2.8392E4,7.5598E4,2.68334E5,2.13659E5,1.5855E4,8.717E3,1.9675E4,4.545E4,3.0148E4,2.27043E5,4.1291E4],"tree_param":{"num_deleted":"0","num_feature":"8","num_nodes":"15","size_leaf_vector":"1"}},{"base_weights":[-3.6167416E-3,2.3257947E-1,-2.26872E-1,7.3082227E-1,-1.7503722E-1,1.4282459E-3,-1.0470594E0,8.600909E-2,2.0012034E-1,4.2663485E-2,-9.4515964E-2,-1.8842979E-1,2.3519527E-2,-1.4898781E-1,-7.036246E-1],"categories":[0,3,4,15,16,22,26,33,36,39,40,43,46,48,0,2,3,4,8,15,16,18,19,20,22,25,26,29,31,33,36,38,39,40,41,42,43,46,47,48],"categories_nodes":[1,2],"categories_segments":[0,14],"categories_sizes":[14,26],"default_left":[0,1,1,0,0,0,0,0,0,0,0,0,0,0,0],"id":52,"left_children":[1,3,5,7,9,11,13,-1,-1,-1,-1,-1,-1,-1,-1],"loss_changes":[3.179157E4,5.9496766E4,5.803501E4,1.3314805E4,2.807672E4,3.951525E4,3.050325E4,0E0,0E0,0E0,0E0,0E0,0E0,0E0,0E0],"parents":[2147483647,0,0,1,1,2,2,3,3,4,4,5,5,6,6],"right_children":[2,4,6,8,10,12,14,-1,-1,-1,-1,-1,-1,-1,-1],"split_conditions":[4.5E1,1E-45,1E-45,4E0,2.3E1,3E0,1.2E1,8.600909E-2,2.0012034E-1,4.2663485E-2,-9.4515964E-2,-1.8842979E-1,2.3519527E-2,-1.4898781E-1,-7.036246E-1],"split_indices":[6,1,1,2,6,3,3,0,0,0,0,0,0,0,0],"split_type":[0,1,1,0,0,0,0,0,0,0,0,0,0,0,0],"sum_hessian":[6.02887E5,2.92953E5,3.09934E5,1.31822E5,1.61131E5,2.42449E5,6.7485E4,9.2575E4,3.9247E4,7.7264E4,8.3867E4,2.6635E4,2.15814E5,6.4698E4,2.787E3],"tree_param":{"num_deleted":"0","num_feature":"8","num_nodes":"15","size_leaf_vector":"1"}},{"base_weights":[5.569758E-3,5.318988E-2,-1.2494541E0,2.3590097E-1,-3.5083762E-1,-2.3119915E-1,-2.8287666E0,1.623412E-1,1.7006373E-2,-8.126225E-3,-1.5750395E-1,-3.4626877E-1,1.1609862E-1,-4.083859E-1,-1.4776912E0],"categories":[4,5,6,0,1,2,3,4,5,6,8,9,10,11,13,15,16,18,19,20,22,23,25,26,28,29,30,31,32,33,34,35,36,38,39,40,41,42,43,45,46,47,48,49],"categories_nodes":[1,3],"categories_segments":[0,3],"categories_sizes":[3,41],"default_left":[0,1,0,1,0,0,0,0,0,0,0,0,0,0,0],"id":53,"left_children":[1,3,5,7,9,11,13,-1,-1,-1,-1,-1,-1,-1,-1],"loss_changes":[3.6004293E4,4.284642E4,3.5415473E4,3.9816297E4,3.3142734E4,2.3598432E4,1.8162352E4,0E0,0E0,0E0,0E0,0E0,0E0,0E0,0E0],"parents":[2147483647,0,0,1,1,2,2,3,3,4,4,5,5,6,6],"right_children":[2,4,6,8,10,12,14,-1,-1,-1,-1,-1,-1,-1,-1],"split_conditions":[1.1E2,1E-45,8E0,1E-45,4.5E1,6E0,1.2E1,1.623412E-1,1.7006373E-2,-8.126225E-3,-1.5750395E-1,-3.4626877E-1,1.1609862E-1,-4.083859E-1,-1.4776912E0],"split_indices":[6,0,3,1,6,3,3,0,0,0,0,0,0,0,0],"split_type":[0,1,0,1,0,0,0,0,0,0,0,0,0,0,0],"sum_hessian":[6.02435E5,5.80413E5,2.2022E4,3.99672E5,1.80741E5,1.339E4,8.632E3,5.9738E4,3.39934E5,1.20881E5,5.986E4,4.461E3,8.929E3,8.181E3,4.51E2],"tree_param":{"num_deleted":"0","num_feature":"8","num_nodes":"15","size_leaf_vector":"1"}},{"base_weights":[4.05001E-3,9.090109E-2,-6.5501904E-1,4.0379307E-1,-1.5130849E-1,-5.160384E-1,-5.0797644E0,-6.353238E-2,9.337848E-2,2.9188134E-2,-1.0478897E-1,-1.3737087E-2,-2.2998302E-1,-1.9161208E0,-7.260626E-1],"categories":[0,2,3,4,8,15,16,18,19,20,22,25,26,29,31,33,36,38,39,40,41,43,46,47,48,1,2,5,6,8,10,11,13,18,19,20,23,25,28,29,30,31,32,34,38,41,42,45,47,49],"categories_nodes":[1,5],"categories_segments":[0,25],"categories_sizes":[25,25],"default_left":[0,1,0,0,0,1,0,0,0,0,0,0,0,0,0],"id":54,"left_children":[1,3,5,7,9,11,13,-1,-1,-1,-1,-1,-1,-1,-1],"loss_changes":[3.4467473E4,4.0320715E4,4.3112406E4,3.0284926E4,4.8059203E4,2.6004502E4,9.198637E3,0E0,0E0,0E0,0E0,0E0,0E0,0E0,0E0],"parents":[2147483647,0,0,1,1,2,2,3,3,4,4,5,5,6,6],"right_children":[2,4,6,8,10,12,14,-1,-1,-1,-1,-1,-1,-1,-1],"split_conditions":[8.7E1,1E-45,1.2E1,1E0,3.4E1,1E-45,2.014E3,-6.353238E-2,9.337848E-2,2.9188134E-2,-1.0478897E-1,-1.3737087E-2,-2.2998302E-1,-1.9161208E0,-7.260626E-1],"split_indices":[6,1,3,2,6,1,4,0,0,0,0,0,0,0,0],"split_type":[0,1,0,0,0,1,0,0,0,0,0,0,0,0,0],"sum_hessian":[6.02146E5,5.32036E5,7.011E4,2.32145E5,2.99891E5,6.7976E4,2.134E3,4.0071E4,1.92074E5,1.78953E5,1.20938E5,4.5663E4,2.2313E4,1.92E2,1.942E3],"tree_param":{"num_deleted":"0","num_feature":"8","num_nodes":"15","size_leaf_vector":"1"}},{"base_weights":[-1.5959035E-3,4.573162E-1,-1.16233945E-1,-2.706812E-1,5.9421575E-1,-5.839108E-1,-2.8439578E-2,-2.5050119E-2,-5.086654E-1,1.586416E-1,3.622586E-2,-7.372565E-2,-2.4969967E-1,4.0117852E-2,-4.9472872E-2],"categories":[0,2,3,4,5,6,8,9],"categories_nodes":[0],"categories_segments":[0],"categories_sizes":[8],"default_left":[1,0,0,0,0,0,0,0,0,0,0,0,0,0,0],"id":55,"left_children":[1,3,5,7,9,11,13,-1,-1,-1,-1,-1,-1,-1,-1],"loss_changes":[3.1688533E4,1.199883E4,1.9788559E4,6.363467E3,1.4084727E4,9.624248E3,3.0208469E4,0E0,0E0,0E0,0E0,0E0,0E0,0E0,0E0],"parents":[2147483647,0,0,1,1,2,2,3,3,4,4,5,5,6,6],"right_children":[2,4,6,8,10,12,14,-1,-1,-1,-1,-1,-1,-1,-1],"split_conditions":[1E-45,3E0,3E0,8.6E1,8E0,5.6E1,8E0,-2.5050119E-2,-5.086654E-1,1.586416E-1,3.622586E-2,-7.372565E-2,-2.4969967E-1,4.0117852E-2,-4.9472872E-2],"split_indices":[0,3,3,5,3,5,3,0,0,0,0,0,0,0,0],"split_type":[1,0,0,0,0,0,0,0,0,0,0,0,0,0,0],"sum_hessian":[6.02341E5,1.20392E5,4.81949E5,1.9056E4,1.01336E5,7.6173E4,4.05776E5,1.8293E4,7.63E2,5.0769E4,5.0567E4,6.6591E4,9.582E3,2.02926E5,2.0285E5],"tree_param":{"num_deleted":"0","num_feature":"8","num_nodes":"15","size_leaf_vector":"1"}},{"base_weights":[1.0285401E-2,1.3190646E-1,-4.1147494E-1,4.498124E-1,-1.7199281E-1,-2.9710582E-1,-2.9224024E0,1.5721233E-1,3.5054332E-3,1.5319307E-2,-1.2586278E-1,-3.2237962E-1,-2.0089377E-2,-3.111586E-1,-8.8860035E-1],"categories":[0,2,3,4,15,16,18,20,22,26,29,33,36,38,39,40,41,43,46,48,0,4,5,6,1,2,5,6,8,11,13,18,19,20,23,25,28,29,30,31,32,34,38,41,42,45,47,49],"categories_nodes":[1,3,6],"categories_segments":[0,20,24],"categories_sizes":[20,4,24],"default_left":[0,1,0,1,0,0,1,0,0,0,0,0,0,0,0],"id":56,"left_children":[1,3,5,7,9,11,13,-1,-1,-1,-1,-1,-1,-1,-1],"loss_changes":[3.0885918E4,4.515189E4,3.8701094E4,4.9693098E4,3.7695082E4,3.7536125E4,1.5005578E4,0E0,0E0,0E0,0E0,0E0,0E0,0E0,0E0],"parents":[2147483647,0,0,1,1,2,2,3,3,4,4,5,5,6,6],"right_children":[2,4,6,8,10,12,14,-1,-1,-1,-1,-1,-1,-1,-1],"split_conditions":[7.1E1,1E-45,1.2E1,1E-45,3.4E1,4E0,1E-45,1.5721233E-1,3.5054332E-3,1.5319307E-2,-1.2586278E-1,-3.2237962E-1,-2.0089377E-2,-3.111586E-1,-8.8860035E-1],"split_indices":[6,1,3,0,6,3,1,0,0,0,0,0,0,0,0],"split_type":[0,1,0,1,0,0,1,0,0,0,0,0,0,0,0],"sum_hessian":[6.02122E5,4.67354E5,1.34768E5,2.28413E5,2.38941E5,1.28898E5,5.87E3,1.04532E5,1.23881E5,1.65225E5,7.3716E4,1.2232E4,1.16666E5,4.157E3,1.713E3],"tree_param":{"num_deleted":"0","num_feature":"8","num_nodes":"15","size_leaf_vector":"1"}},{"base_weights":[1.4526435E-3,-4.4703656E-1,1.4800715E-1,-2.4391453E-1,-9.617918E-1,3.4429412E-2,8.34728E-1,-1.5955134E-1,-2.8394872E-2,-1.4297774E-1,-5.585092E-1,-5.4128367E-2,2.5239531E-2,6.587401E-2,2.1617499E-1],"categories":[],"categories_nodes":[],"categories_segments":[],"categories_sizes":[],"default_left":[0,0,0,0,0,0,0,0,0,0,0,0,0,0,0],"id":57,"left_children":[1,3,5,7,9,11,13,-1,-1,-1,-1,-1,-1,-1,-1],"loss_changes":[3.957799E4,1.5506152E4,3.5398004E4,5.4928604E3,9.306117E3,1.691768E4,1.3456945E4,0E0,0E0,0E0,0E0,0E0,0E0,0E0,0E0],"parents":[2147483647,0,0,1,1,2,2,3,3,4,4,5,5,6,6],"right_children":[2,4,6,8,10,12,14,-1,-1,-1,-1,-1,-1,-1,-1],"split_conditions":[2.014E3,5.6E1,6E0,2E0,1.2E1,4E0,5.0714287E1,-1.5955134E-1,-2.8394872E-2,-1.4297774E-1,-5.585092E-1,-5.4128367E-2,2.5239531E-2,6.587401E-2,2.1617499E-1],"split_indices":[4,5,2,3,3,3,7,0,0,0,0,0,0,0,0],"split_type":[0,0,0,0,0,0,0,0,0,0,0,0,0,0,0],"sum_hessian":[6.02145E5,1.48303E5,4.53842E5,1.06342E5,4.1961E4,3.89434E5,6.4408E4,9.445E3,9.6897E4,4.0455E4,1.506E3,9.6107E4,2.93327E5,3.3911E4,3.0497E4],"tree_param":{"num_deleted":"0","num_feature":"8","num_nodes":"15","size_leaf_vector":"1"}},{"base_weights":[9.779871E-4,1.6992907E-1,-2.9577723E-1,2.0149637E-2,1.2094908E0,-1.3177642E0,-7.673493E-2,3.391825E-2,-7.227501E-2,1.7977923E-1,6.480132E-1,-4.0513626E-1,-1.6534722E-1,1.7340406E-3,-3.28073E-1],"categories":[],"categories_nodes":[],"categories_segments":[],"categories_sizes":[],"default_left":[0,0,0,0,0,0,0,0,0,0,0,0,0,0,0],"id":58,"left_children":[1,3,5,7,9,11,13,-1,-1,-1,-1,-1,-1,-1,-1],"loss_changes":[3.0176275E4,5.9716566E4,4.8879594E4,2.8774205E4,1.512957E4,1.3763883E4,3.0162836E4,0E0,0E0,0E0,0E0,0E0,0E0,0E0,0E0],"parents":[2147483647,0,0,1,1,2,2,3,3,4,4,5,5,6,6],"right_children":[2,4,6,8,10,12,14,-1,-1,-1,-1,-1,-1,-1,-1],"split_conditions":[5.7E1,5.257143E1,5.957143E1,3.9E1,7.428571E1,4.957143E1,1.2E1,3.391825E-2,-7.227501E-2,1.7977923E-1,6.480132E-1,-4.0513626E-1,-1.6534722E-1,1.7340406E-3,-3.28073E-1],"split_indices":[6,7,7,6,7,7,3,0,0,0,0,0,0,0,0],"split_type":[0,0,0,0,0,0,0,0,0,0,0,0,0,0,0],"sum_hessian":[6.01873E5,3.83523E5,2.1835E5,3.35225E5,4.8298E4,3.8538E4,1.79812E5,2.38597E5,9.6628E4,4.6361E4,1.937E3,8.195E3,3.0343E4,1.71999E5,7.813E3],"tree_param":{"num_deleted":"0","num_feature":"8","num_nodes":"15","size_leaf_vector":"1"}},{"base_weights":[4.8143053E-3,-1.2600175E-1,3.9363685E-1,-4.530923E-2,-1.0942082E0,9.89694E-1,2.4451488E-1,-3.1578045E-2,5.899616E-2,-3.7963897E-1,-1.3123134E-1,1.5921268E-1,2.0655575E0,4.9114656E-2,-1.6346695E-1],"categories":[0,2,3,4,5,6,8,9],"categories_nodes":[2],"categories_segments":[0],"categories_sizes":[8],"default_left":[0,0,1,0,0,0,0,0,0,0,0,0,0,0,0],"id":59,"left_children":[1,3,5,7,9,11,13,-1,-1,-1,-1,-1,-1,-1,-1],"loss_changes":[3.0633186E4,3.520711E4,1.3476E4,2.4749215E4,1.2451367E4,6.9980137E3,8.21858E3,0E0,0E0,0E0,0E0,0E0,0E0,0E0,0E0],"parents":[2147483647,0,0,1,1,2,2,3,3,4,4,5,5,6,6],"right_children":[2,4,6,8,10,12,14,-1,-1,-1,-1,-1,-1,-1,-1],"split_conditions":[2.016E3,9.2E1,1E-45,5E0,3E0,1.79E2,1.1E2,-3.1578045E-2,5.899616E-2,-3.7963897E-1,-1.3123134E-1,1.5921268E-1,2.0655575E0,4.9114656E-2,-1.6346695E-1],"split_indices":[4,6,0,2,2,6,6,0,0,0,0,0,0,0,0],"split_type":[0,0,1,0,0,0,0,0,0,0,0,0,0,0,0],"sum_hessian":[6.02252E5,4.50639E5,1.51613E5,4.15972E5,3.4667E4,3.0339E4,1.21274E5,3.0511E5,1.10862E5,6.755E3,2.7912E4,3.0288E4,5.1E1,1.16157E5,5.117E3],"tree_param":{"num_deleted":"0","num_feature":"8","num_nodes":"15","size_leaf_vector":"1"}},{"base_weights":[1.1703155E-3,7.284716E-1,-6.1974294E-2,1.9490811E0,5.914249E-1,6.815965E-2,-3.6600912E-1,2.9399756E-1,1.227718E0,7.119002E-2,2.5255045E-1,-3.411597E-2,4.514468E-2,-3.85582E-2,-1.8612498E-1],"categories":[0,1,2,3,4,5,6,7,8,9,10,11,13,15,16,18,19,20,21,22,23,24,25,26,28,29,30,31,32,33,34,35,36,37,38,39,40,41,42,43,44,45,46,47,48,49,0,2,3,4,5,6,7,8,9,4,5,6],"categories_nodes":[0,1,2],"categories_segments":[0,46,55],"categories_sizes":[46,9,3],"default_left":[1,1,1,0,0,0,0,0,0,0,0,0,0,0,0],"id":60,"left_children":[1,3,5,7,9,11,13,-1,-1,-1,-1,-1,-1,-1,-1],"loss_changes":[2.7681066E4,8.0534023E3,2.1942637E4,4.2415137E3,6.467927E3,2.2165092E4,1.6735994E4,0E0,0E0,0E0,0E0,0E0,0E0,0E0,0E0],"parents":[2147483647,0,0,1,1,2,2,3,3,4,4,5,5,6,6],"right_children":[2,4,6,8,10,12,14,-1,-1,-1,-1,-1,-1,-1,-1],"split_conditions":[1E-45,1E-45,1E-45,1.61E2,6E0,3E0,5.6E1,2.9399756E-1,1.227718E0,7.119002E-2,2.5255045E-1,-3.411597E-2,4.514468E-2,-3.85582E-2,-1.8612498E-1],"split_indices":[1,0,0,5,2,2,5,0,0,0,0,0,0,0,0],"split_type":[1,1,1,0,0,0,0,0,0,0,0,0,0,0,0],"sum_hessian":[6.02741E5,4.8149E4,5.54592E5,4.859E3,4.329E4,3.88364E5,1.66228E5,4.725E3,1.34E2,3.7107E4,6.183E3,1.66371E5,2.21993E5,1.41974E5,2.4254E4],"tree_param":{"num_deleted":"0","num_feature":"8","num_nodes":"15","size_leaf_vector":"1"}},{"base_weights":[-9.317347E-4,4.015914E-2,-1.0799499E0,-2.2958713E-2,1.3146281E0,-2.4897484E-1,-2.3647041E0,1.6716385E-2,-1.14782654E-1,8.136546E-2,4.3782485E-1,-2.9437232E-1,8.779999E-2,-3.1074476E-1,-7.906028E-1],"categories":[1,5,6,8,9,10,11,13,23,25,28,30,34,38,42,45,47,49],"categories_nodes":[6],"categories_segments":[0],"categories_sizes":[18],"default_left":[0,0,0,0,0,0,1,0,0,0,0,0,0,0,0],"id":61,"left_children":[1,3,5,7,9,11,13,-1,-1,-1,-1,-1,-1,-1,-1],"loss_changes":[2.6692328E4,4.6651176E4,2.3577328E4,4.662183E4,3.0305375E4,1.62316455E4,1.00241875E4,0E0,0E0,0E0,0E0,0E0,0E0,0E0,0E0],"parents":[2147483647,0,0,1,1,2,2,3,3,4,4,5,5,6,6],"right_children":[2,4,6,8,10,12,14,-1,-1,-1,-1,-1,-1,-1,-1],"split_conditions":[1.1E2,9.271429E1,8E0,7.1E1,3E0,1.0542857E2,1E-45,1.6716385E-2,-1.14782654E-1,8.136546E-2,4.3782485E-1,-2.9437232E-1,8.779999E-2,-3.1074476E-1,-7.906028E-1],"split_indices":[6,7,3,6,2,7,1,0,0,0,0,0,0,0,0],"split_type":[0,0,0,0,0,0,1,0,0,0,0,0,0,0,0],"sum_hessian":[6.0202E5,5.79936E5,2.2084E4,5.52571E5,2.7365E4,1.3411E4,8.673E3,4.66489E5,8.6082E4,1.7043E4,1.0322E4,4.515E3,8.896E3,7.274E3,1.399E3],"tree_param":{"num_deleted":"0","num_feature":"8","num_nodes":"15","size_leaf_vector":"1"}},{"base_weights":[-5.0732815E-3,4.2368656E-1,-9.919359E-2,5.7661104E-1,-4.4617787E-1,4.6926588E-2,-6.29177E-1,1.5944164E-1,2.0015413E-2,1.2517344E-2,-2.2226527E-1,5.2559752E-2,-4.4114582E-2,-4.698375E-1,-8.912608E-2],"categories":[0,1,2,3,4,5,6,7,8,9,10,11,13,15,16,18,19,20,22,23,25,26,28,29,30,31,32,33,34,36,38,39,40,41,42,43,45,46,47,48,49,0,4,5,6,0,3,4,5,6,8,9,0,2,3,4,12,14,15,17,21,22,24,26,27,33,35,36,37,39,40,41,43,44,46,48],"categories_nodes":[0,3,4,5],"categories_segments":[0,41,45,52],"categories_sizes":[41,4,7,24],"default_left":[1,0,0,1,1,1,0,0,0,0,0,0,0,0,0],"id":62,"left_children":[1,3,5,7,9,11,13,-1,-1,-1,-1,-1,-1,-1,-1],"loss_changes":[2.4313854E4,1.442693E4,3.8259656E4,1.6547053E4,7.689201E3,3.3396188E4,2.0573734E4,0E0,0E0,0E0,0E0,0E0,0E0,0E0,0E0],"parents":[2147483647,0,0,1,1,2,2,3,3,4,4,5,5,6,6],"right_children":[2,4,6,8,10,12,14,-1,-1,-1,-1,-1,-1,-1,-1],"split_conditions":[1E-45,1.1E2,6.2E1,1E-45,1E-45,1E-45,5.1285713E1,1.5944164E-1,2.0015413E-2,1.2517344E-2,-2.2226527E-1,5.2559752E-2,-4.4114582E-2,-4.698375E-1,-8.912608E-2],"split_indices":[1,6,6,0,0,1,7,0,0,0,0,0,0,0,0],"split_type":[1,0,0,1,1,1,0,0,0,0,0,0,0,0,0],"sum_hessian":[6.02497E5,1.08451E5,4.94046E5,9.2236E4,1.6215E4,3.87273E5,1.06773E5,4.9384E4,4.2852E4,1.0292E4,5.923E3,2.07584E5,1.79689E5,3.973E3,1.028E5],"tree_param":{"num_deleted":"0","num_feature":"8","num_nodes":"15","size_leaf_vector":"1"}},{"base_weights":[-3.6984456E-3,-9.201177E-2,5.285388E-1,-2.7737278E-3,-8.812374E-1,9.345701E-1,1.1234898E-2,5.9448842E-2,-2.579095E-2,-5.480644E-2,-2.6653636E-1,2.2129703E-1,5.121818E-2,-8.997605E-2,3.1822324E-2],"categories":[0,1,2,3,4,15,16,18,20,22,26,29,31,33,36,39,40,41,42,43,46,48,0,1,2,3,4,5,6,8,13,15,16,18,19,20,22,25,26,29,30,31,33,36,38,39,40,41,42,43,45,46,47,48,0,4,5,6],"categories_nodes":[2,3,5],"categories_segments":[0,22,54],"categories_sizes":[22,32,4],"default_left":[0,0,1,1,0,1,0,0,0,0,0,0,0,0,0],"id":63,"left_children":[1,3,5,7,9,11,13,-1,-1,-1,-1,-1,-1,-1,-1],"loss_changes":[2.8310957E4,3.6383312E4,1.8004334E4,2.6133195E4,2.1321574E4,1.2358523E4,3.8495474E3,0E0,0E0,0E0,0E0,0E0,0E0,0E0,0E0],"parents":[2147483647,0,0,1,1,2,2,3,3,4,4,5,5,6,6],"right_children":[2,4,6,8,10,12,14,-1,-1,-1,-1,-1,-1,-1,-1],"split_conditions":[6E0,8.7E1,1E-45,1E-45,8E0,1E-45,4E0,5.9448842E-2,-2.579095E-2,-5.480644E-2,-2.6653636E-1,2.2129703E-1,5.121818E-2,-8.997605E-2,3.1822324E-2],"split_indices":[2,6,1,1,3,0,3,0,0,0,0,0,0,0,0],"split_type":[0,0,1,1,0,1,0,0,0,0,0,0,0,0,0],"sum_hessian":[6.02312E5,5.16595E5,8.5717E4,4.64118E5,5.2477E4,4.8023E4,3.7694E4,1.37948E5,3.2617E5,3.0203E4,2.2274E4,2.8861E4,1.9162E4,9.277E3,2.8417E4],"tree_param":{"num_deleted":"0","num_feature":"8","num_nodes":"15","size_leaf_vector":"1"}},{"base_weights":[-5.5726264E-3,2.5764343E-1,-1.8080397E-1,6.0134697E-1,6.426465E-2,7.3907785E-2,-5.147926E-1,1.7139621E-1,-1.7194153E-3,3.780079E-2,-1.6635562E-1,1.035715E-1,-2.9381124E-2,-2.8897554E-1,-6.3557E-2],"categories":[0,3,4,5,6,8,0,1,2,3,4,5,6,8,13,15,16,18,19,20,22,25,26,29,30,31,33,36,38,39,40,41,42,43,45,46,47,48,0,2,3,4,15,16,18,20,22,26,29,31,33,36,38,39,40,41,43,46,48],"categories_nodes":[0,1,5],"categories_segments":[0,6,38],"categories_sizes":[6,32,21],"default_left":[1,1,0,0,0,1,0,0,0,0,0,0,0,0,0],"id":64,"left_children":[1,3,5,7,9,11,13,-1,-1,-1,-1,-1,-1,-1,-1],"loss_changes":[2.7811674E4,1.601729E4,3.0794916E4,2.349757E4,2.7582357E4,2.8923E4,2.4900945E4,0E0,0E0,0E0,0E0,0E0,0E0,0E0,0E0],"parents":[2147483647,0,0,1,1,2,2,3,3,4,4,5,5,6,6],"right_children":[2,4,6,8,10,12,14,-1,-1,-1,-1,-1,-1,-1,-1],"split_conditions":[1E-45,1E-45,4.5E1,9.2E1,7E1,1E-45,1E0,1.7139621E-1,-1.7194153E-3,3.780079E-2,-1.6635562E-1,1.035715E-1,-2.9381124E-2,-2.8897554E-1,-6.3557E-2],"split_indices":[0,1,6,6,6,1,2,0,0,0,0,0,0,0,0],"split_type":[1,1,0,0,0,1,0,0,0,0,0,0,0,0,0],"sum_hessian":[6.02978E5,2.40988E5,3.6199E5,8.6768E4,1.5422E5,2.05369E5,1.56621E5,5.0345E4,3.6423E4,1.33636E5,2.0584E4,6.4127E4,1.41242E5,1.4562E4,1.42059E5],"tree_param":{"num_deleted":"0","num_feature":"8","num_nodes":"15","size_leaf_vector":"1"}},{"base_weights":[-3.7720424E-4,-5.1936775E-1,9.698779E-2,-3.153915E-1,-1.6680332E0,3.405353E-1,-1.4690724E-1,-3.3333108E-2,-1.637984E-1,-2.061219E-1,-3.999209E-1,1.4373658E-2,1.185393E-1,5.9540395E-2,-6.144072E-2],"categories":[0,3,4,26,40,46],"categories_nodes":[3],"categories_segments":[0],"categories_sizes":[6],"default_left":[0,0,0,1,0,0,0,0,0,0,0,0,0,0,0],"id":65,"left_children":[1,3,5,7,9,11,13,-1,-1,-1,-1,-1,-1,-1,-1],"loss_changes":[3.0421484E4,2.2281926E4,3.0111586E4,6.1912974E3,4.5399766E3,2.4479275E4,2.934009E4,0E0,0E0,0E0,0E0,0E0,0E0,0E0,0E0],"parents":[2147483647,0,0,1,1,2,2,3,3,4,4,5,5,6,6],"right_children":[2,4,6,8,10,12,14,-1,-1,-1,-1,-1,-1,-1,-1],"split_conditions":[3E0,5.7E1,8E0,1E-45,7.1E1,6E0,3.4E1,-3.3333108E-2,-1.637984E-1,-2.061219E-1,-3.999209E-1,1.4373658E-2,1.185393E-1,5.9540395E-2,-6.144072E-2],"split_indices":[3,6,3,1,6,3,6,0,0,0,0,0,0,0,0],"split_type":[0,0,0,1,0,0,0,0,0,0,0,0,0,0,0],"sum_hessian":[6.02028E5,9.5101E4,5.06927E5,8.0761E4,1.434E4,2.53644E5,2.53283E5,6.9343E4,1.1418E4,9.33E3,5.01E3,1.52508E5,1.01136E5,7.8136E4,1.75147E5],"tree_param":{"num_deleted":"0","num_feature":"8","num_nodes":"15","size_leaf_vector":"1"}},{"base_weights":[-2.888836E-3,-4.3355688E-1,1.3738811E-1,-3.5130888E-1,-1.6790932E0,5.288203E-1,-3.4414776E-4,-4.1191556E-2,-1.112854E-1,-2.3118807E-1,-5.220204E-1,2.525806E-1,6.8276495E-2,7.7937557E-3,-1.377515E-1],"categories":[0,1,2,3,4,5,6,8,9,13,15,16,18,19,20,22,23,25,26,29,30,31,32,33,34,36,38,39,40,41,42,43,45,46,47,48,49,1,5,6,11,13,18,19,23,28,34,42,45,47,49,0,2,3,4,5,6,7,8,9],"categories_nodes":[2,4,5],"categories_segments":[0,37,51],"categories_sizes":[37,14,9],"default_left":[0,0,1,0,1,1,0,0,0,0,0,0,0,0,0],"id":66,"left_children":[1,3,5,7,9,11,13,-1,-1,-1,-1,-1,-1,-1,-1],"loss_changes":[3.6409586E4,1.5168531E4,2.4509098E4,4.554088E3,3.7242969E3,1.3493113E4,1.3485895E4,0E0,0E0,0E0,0E0,0E0,0E0,0E0,0E0],"parents":[2147483647,0,0,1,1,2,2,3,3,4,4,5,5,6,6],"right_children":[2,4,6,8,10,12,14,-1,-1,-1,-1,-1,-1,-1,-1],"split_conditions":[2.014E3,8.6E1,1E-45,5.6E1,1E-45,1E-45,8.6E1,-4.1191556E-2,-1.112854E-1,-2.3118807E-1,-5.220204E-1,2.525806E-1,6.8276495E-2,7.7937557E-3,-1.377515E-1],"split_indices":[4,5,1,5,1,0,5,0,0,0,0,0,0,0,0],"split_type":[0,0,1,0,1,1,0,0,0,0,0,0,0,0,0],"sum_hessian":[6.02678E5,1.48073E5,4.54605E5,1.38902E5,9.171E3,1.18325E5,3.3628E5,1.06235E5,3.2667E4,7.77E3,1.401E3,1.1904E4,1.06421E5,3.18143E5,1.8137E4],"tree_param":{"num_deleted":"0","num_feature":"8","num_nodes":"15","size_leaf_vector":"1"}},{"base_weights":[1.3734206E-3,-2.4459352E-1,1.8573062E-1,-1.6273758E-1,-9.053608E-1,-2.839524E-1,3.384386E-1,-1.429114E-2,-1.4260517E-1,-3.3341768E-1,-1.1437481E-1,-1.0827119E-1,-1.4936026E-2,1.0916733E-1,1.2902405E-2],"categories":[],"categories_nodes":[],"categories_segments":[],"categories_sizes":[],"default_left":[0,0,0,0,0,0,0,0,0,0,0,0,0,0,0],"id":67,"left_children":[1,3,5,7,9,11,13,-1,-1,-1,-1,-1,-1,-1,-1],"loss_changes":[2.7326453E4,1.3963844E4,2.4705615E4,1.2273129E4,6.6829824E3,6.124488E3,2.2053193E4,0E0,0E0,0E0,0E0,0E0,0E0,0E0,0E0],"parents":[2147483647,0,0,1,1,2,2,3,3,4,4,5,5,6,6],"right_children":[2,4,6,8,10,12,14,-1,-1,-1,-1,-1,-1,-1,-1],"split_conditions":[3E0,8.6E1,4E0,1.2E1,5E0,2E0,8E0,-1.429114E-2,-1.4260517E-1,-3.3341768E-1,-1.1437481E-1,-1.0827119E-1,-1.4936026E-2,1.0916733E-1,1.2902405E-2],"split_indices":[2,5,3,3,3,3,3,0,0,0,0,0,0,0,0],"split_type":[0,0,0,0,0,0,0,0,0,0,0,0,0,0,0],"sum_hessian":[6.02622E5,2.58172E5,3.4445E5,2.29716E5,2.8456E4,8.4513E4,2.59937E5,2.0747E5,2.2246E4,4.45E3,2.4006E4,2.8687E4,5.5826E4,1.15195E5,1.44742E5],"tree_param":{"num_deleted":"0","num_feature":"8","num_nodes":"15","size_leaf_vector":"1"}},{"base_weights":[-6.5301736E-3,-2.2014637E-1,2.0461366E-1,-6.525212E-2,-9.28565E-1,-1.9249883E-1,3.350169E-1,-2.0921001E-2,1.7098284E-1,-1.3368876E-1,-6.350616E-1,-2.4798722E-4,-2.1188432E-1,4.641062E-3,9.2658654E-2],"categories":[],"categories_nodes":[],"categories_segments":[],"categories_sizes":[],"default_left":[0,0,0,0,0,0,0,0,0,0,0,0,0,0,0],"id":68,"left_children":[1,3,5,7,9,11,13,-1,-1,-1,-1,-1,-1,-1,-1],"loss_changes":[2.7183035E4,3.28734E4,1.5695663E4,1.6916496E4,1.8052082E4,1.5713572E4,1.6053266E4,0E0,0E0,0E0,0E0,0E0,0E0,0E0,0E0],"parents":[2147483647,0,0,1,1,2,2,3,3,4,4,5,5,6,6],"right_children":[2,4,6,8,10,12,14,-1,-1,-1,-1,-1,-1,-1,-1],"split_conditions":[2.015E3,7.1E1,4E0,6.857143E1,1.2E1,6.6E1,3E0,-2.0921001E-2,1.7098284E-1,-1.3368876E-1,-6.350616E-1,-2.4798722E-4,-2.1188432E-1,4.641062E-3,9.2658654E-2],"split_indices":[4,6,3,7,3,6,2,0,0,0,0,0,0,0,0],"split_type":[0,0,0,0,0,0,0,0,0,0,0,0,0,0,0],"sum_hessian":[6.02676E5,2.99584E5,3.03092E5,2.45834E5,5.375E4,7.4925E4,2.28167E5,2.32758E5,1.3076E4,5.174E4,2.01E3,6.3825E4,1.11E4,9.7617E4,1.3055E5],"tree_param":{"num_deleted":"0","num_feature":"8","num_nodes":"15","size_leaf_vector":"1"}},{"base_weights":[5.603649E-3,-1.057585E-1,3.364856E-1,-5.5143215E-2,-6.474877E-1,7.966845E-1,5.329213E-2,-2.1164857E-2,1.12558976E-1,-7.522584E-2,-6.4485437E-1,-1.5635923E-2,1.5942585E-1,2.879554E-2,-4.8556063E-2],"categories":[0,2,3,4,5,8,13,15,16,18,19,20,22,25,26,28,29,30,31,33,36,38,39,40,41,42,43,45,46,47,48,0,3,4,15,26,40,46,48],"categories_nodes":[2,6],"categories_segments":[0,31],"categories_sizes":[31,8],"default_left":[0,0,1,0,0,0,1,0,0,0,0,0,0,0,0],"id":69,"left_children":[1,3,5,7,9,11,13,-1,-1,-1,-1,-1,-1,-1,-1],"loss_changes":[2.2197328E4,1.2358443E4,1.9769395E4,2.2524984E4,2.3911887E4,8.987645E3,4.0022588E3,0E0,0E0,0E0,0E0,0E0,0E0,0E0,0E0],"parents":[2147483647,0,0,1,1,2,2,3,3,4,4,5,5,6,6],"right_children":[2,4,6,8,10,12,14,-1,-1,-1,-1,-1,-1,-1,-1],"split_conditions":[2.016E3,1.2E1,1E-45,1.1E1,7.157143E1,3E0,1E-45,-2.1164857E-2,1.12558976E-1,-7.522584E-2,-6.4485437E-1,-1.5635923E-2,1.5942585E-1,2.879554E-2,-4.8556063E-2],"split_indices":[4,3,1,3,7,3,1,0,0,0,0,0,0,0,0],"split_type":[0,0,1,0,0,0,1,0,0,0,0,0,0,0,0],"sum_hessian":[6.02405E5,4.50713E5,1.51692E5,4.12201E5,3.8512E4,5.7786E4,9.3906E4,3.74868E5,3.7333E4,3.6412E4,2.1E3,9.45E3,4.8336E4,6.957E4,2.4336E4],"tree_param":{"num_deleted":"0","num_feature":"8","num_nodes":"15","size_leaf_vector":"1"}},{"base_weights":[-7.473827E-3,1.3624522E-1,-3.4349984E-1,4.8452124E-2,6.658571E-1,-2.1724416E-1,-9.073787E-1,2.2254063E-2,-6.9718964E-2,7.840659E-3,1.4245093E-1,-2.5720619E-2,-1.2429746E-1,-1.3972859E-1,-6.600577E-1],"categories":[4,5,6],"categories_nodes":[0],"categories_segments":[0],"categories_sizes":[3],"default_left":[1,0,0,0,0,0,0,0,0,0,0,0,0,0,0],"id":70,"left_children":[1,3,5,7,9,11,13,-1,-1,-1,-1,-1,-1,-1,-1],"loss_changes":[2.9084613E4,1.9613533E4,1.2844285E4,1.4910519E4,7.4821035E3,4.820918E3,5.7807812E3,0E0,0E0,0E0,0E0,0E0,0E0,0E0,0E0],"parents":[2147483647,0,0,1,1,2,2,3,3,4,4,5,5,6,6],"right_children":[2,4,6,8,10,12,14,-1,-1,-1,-1,-1,-1,-1,-1],"split_conditions":[1E-45,6E0,5.6E1,8.6E1,2.014E3,1.2E1,1.2E1,2.2254063E-2,-6.9718964E-2,7.840659E-3,1.4245093E-1,-2.5720619E-2,-1.2429746E-1,-1.3972859E-1,-6.600577E-1],"split_indices":[0,2,5,5,4,3,3,0,0,0,0,0,0,0,0],"split_type":[1,0,0,0,0,0,0,0,0,0,0,0,0,0,0],"sum_hessian":[6.02247E5,4.2183E5,1.80417E5,3.61848E5,5.9982E4,1.47412E5,3.3005E4,3.05591E5,5.6257E4,1.4764E4,4.5218E4,1.3254E5,1.4872E4,3.242E4,5.85E2],"tree_param":{"num_deleted":"0","num_feature":"8","num_nodes":"15","size_leaf_vector":"1"}},{"base_weights":[5.8931177E-3,4.1429156E-1,-9.615374E-2,7.8382695E-1,4.4657223E-2,-2.9741993E-2,-1.0388482E0,1.7501463E-1,-7.134338E-2,6.340214E-2,-9.1179706E-2,7.8391165E-2,-2.3374565E-2,-1.4610375E-1,-6.029013E-1],"categories":[0,2,3,4,5,6,8,9,0,2,3,4,15,16,18,19,20,22,25,26,29,31,33,36,38,39,40,41,42,43,46,47,48,0,1,2,3,4,5,6,8,10,11,13,15,16,18,19,20,22,23,25,26,28,29,30,31,32,33,34,36,38,39,40,41,42,43,45,46,47,48,49,1,5,6,8,13,19,20,25,30,38,42,45,47],"categories_nodes":[0,1,5,6],"categories_segments":[0,8,33,72],"categories_sizes":[8,25,39,13],"default_left":[1,1,0,0,0,1,1,0,0,0,0,0,0,0,0],"id":71,"left_children":[1,3,5,7,9,11,13,-1,-1,-1,-1,-1,-1,-1,-1],"loss_changes":[2.509711E4,1.6444395E4,3.0164094E4,2.0698617E4,1.233423E4,2.5714016E4,1.2433086E4,0E0,0E0,0E0,0E0,0E0,0E0,0E0,0E0],"parents":[2147483647,0,0,1,1,2,2,3,3,4,4,5,5,6,6],"right_children":[2,4,6,8,10,12,14,-1,-1,-1,-1,-1,-1,-1,-1],"split_conditions":[1E-45,1E-45,9.2E1,1.1E2,4.5E1,1E-45,1E-45,1.7501463E-1,-7.134338E-2,6.340214E-2,-9.1179706E-2,7.8391165E-2,-2.3374565E-2,-1.4610375E-1,-6.029013E-1],"split_indices":[0,1,6,6,6,1,1,0,0,0,0,0,0,0,0],"split_type":[1,1,0,0,0,1,1,0,0,0,0,0,0,0,0],"sum_hessian":[6.02197E5,1.20389E5,4.81808E5,6.0202E4,6.0187E4,4.501E5,3.1708E4,4.8881E4,1.1321E4,3.8356E4,2.1831E4,8.1786E4,3.68314E5,3.0012E4,1.696E3],"tree_param":{"num_deleted":"0","num_feature":"8","num_nodes":"15","size_leaf_vector":"1"}},{"base_weights":[-1.4511739E-3,4.8358223E-1,-8.696264E-2,-1.3620051E-2,6.524192E-1,8.915508E-2,-4.035433E-1,-6.242094E-2,4.095644E-2,6.669867E-2,1.3136038E-1,-1.3461056E-1,2.5682261E-2,-4.730001E-2,-2.148279E-1],"categories":[0,4,5,6],"categories_nodes":[2],"categories_segments":[0],"categories_sizes":[4],"default_left":[0,0,1,0,0,0,0,0,0,0,0,0,0,0,0],"id":72,"left_children":[1,3,5,7,9,11,13,-1,-1,-1,-1,-1,-1,-1,-1],"loss_changes":[2.4989572E4,7.5805117E3,2.8558316E4,2.2078643E3,2.4504824E3,2.0128E4,1.9127059E4,0E0,0E0,0E0,0E0,0E0,0E0,0E0,0E0],"parents":[2147483647,0,0,1,1,2,2,3,3,4,4,5,5,6,6],"right_children":[2,4,6,8,10,12,14,-1,-1,-1,-1,-1,-1,-1,-1],"split_conditions":[2.3E1,1.5E1,1E-45,3E0,4E0,2E0,7.1E1,-6.242094E-2,4.095644E-2,6.669867E-2,1.3136038E-1,-1.3461056E-1,2.5682261E-2,-4.730001E-2,-2.148279E-1],"split_indices":[6,5,0,3,3,3,6,0,0,0,0,0,0,0,0],"split_type":[0,0,1,0,0,0,0,0,0,0,0,0,0,0,0],"sum_hessian":[6.02506E5,9.0301E4,5.12205E5,2.2891E4,6.741E4,3.29115E5,1.8309E5,9.564E3,1.3327E4,2.528E4,4.213E4,2.2677E4,3.06438E5,1.62378E5,2.0712E4],"tree_param":{"num_deleted":"0","num_feature":"8","num_nodes":"15","size_leaf_vector":"1"}},{"base_weights":[2.1532476E-3,-1.6139773E-1,2.2005437E-1,6.3864246E-2,-4.29252E-1,2.6123667E-1,-1.5715309E0,-2.1266308E-2,1.2485963E-1,-2.557551E-1,-3.4110576E-2,3.5340376E-2,4.1286018E-1,-3.5293907E-1,2.1749437E-1],"categories":[],"categories_nodes":[],"categories_segments":[],"categories_sizes":[],"default_left":[0,0,0,0,0,0,0,0,0,0,0,0,0,0,0],"id":73,"left_children":[1,3,5,7,9,11,13,-1,-1,-1,-1,-1,-1,-1,-1],"loss_changes":[2.145796E4,2.0753068E4,1.9047873E4,2.51718E4,3.9273086E4,2.6147361E4,9.717607E3,0E0,0E0,0E0,0E0,0E0,0E0,0E0,0E0],"parents":[2147483647,0,0,1,1,2,2,3,3,4,4,5,5,6,6],"right_children":[2,4,6,8,10,12,14,-1,-1,-1,-1,-1,-1,-1,-1],"split_conditions":[4E0,4.5E1,1.29E2,4.157143E1,5.3714287E1,1.04E2,1.2971428E2,-2.1266308E-2,1.2485963E-1,-2.557551E-1,-3.4110576E-2,3.5340376E-2,4.1286018E-1,-3.5293907E-1,2.1749437E-1],"split_indices":[2,6,6,7,7,7,7,0,0,0,0,0,0,0,0],"split_type":[0,0,0,0,0,0,0,0,0,0,0,0,0,0,0],"sum_hessian":[6.02108E5,3.43949E5,2.58159E5,1.86829E5,1.5712E5,2.52359E5,5.8E3,1.46234E5,4.0595E4,2.5776E4,1.31344E5,2.47314E5,5.045E3,4.835E3,9.65E2],"tree_param":{"num_deleted":"0","num_feature":"8","num_nodes":"15","size_leaf_vector":"1"}},{"base_weights":[-2.1554672E-5,9.95356E-1,-4.1385364E-2,6.876896E-1,1.903355E0,2.9113965E-2,-8.4969616E-1,1.3176416E-1,-2.0296079E-1,4.236887E-1,1.4373761E-1,2.2504518E-2,-7.520496E-2,-3.7424698E-1,-1.1226588E-1],"categories":[0,1,2,3,4,5,6,7,8,9,10,11,12,13,15,16,17,18,19,20,21,22,23,24,25,26,28,29,30,31,32,33,34,35,36,37,38,39,40,41,42,43,44,45,46,47,48,49,0,4,5,6,0,3,4,15,26,33,40,46],"categories_nodes":[0,4,5],"categories_segments":[0,48,52],"categories_sizes":[48,4,8],"default_left":[1,0,0,0,1,1,0,0,0,0,0,0,0,0,0],"id":74,"left_children":[1,3,5,7,9,11,13,-1,-1,-1,-1,-1,-1,-1,-1],"loss_changes":[2.47771E4,6.7061406E3,3.29248E4,3.965087E3,4.227785E3,2.7951447E4,1.099225E4,0E0,0E0,0E0,0E0,0E0,0E0,0E0,0E0],"parents":[2147483647,0,0,1,1,2,2,3,3,4,4,5,5,6,6],"right_children":[2,4,6,8,10,12,14,-1,-1,-1,-1,-1,-1,-1,-1],"split_conditions":[1E-45,2.016E3,9.2E1,1.29E2,1E-45,1E-45,2.014E3,1.3176416E-1,-2.0296079E-1,4.236887E-1,1.4373761E-1,2.2504518E-2,-7.520496E-2,-3.7424698E-1,-1.1226588E-1],"split_indices":[1,4,6,6,0,1,4,0,0,0,0,0,0,0,0],"split_type":[1,0,0,0,1,1,0,0,0,0,0,0,0,0,0],"sum_hessian":[6.01784E5,2.4009E4,5.77775E5,1.7934E4,6.075E3,5.31426E5,4.6349E4,1.6924E4,1.01E3,3.661E3,2.414E3,4.35025E5,9.6401E4,4.817E3,4.1532E4],"tree_param":{"num_deleted":"0","num_feature":"8","num_nodes":"15","size_leaf_vector":"1"}},{"base_weights":[1.00463955E-2,3.6964655E-1,-9.1553554E-2,-5.430657E-1,5.207397E-1,2.424951E-1,-3.241284E-1,-4.936817E-2,-5.442427E-1,1.1135092E-1,-5.828029E-2,1.3896258E-1,-8.724108E-3,-3.0988887E-2,-1.9139309E-1],"categories":[0,1,2,3,4,5,6,8,10,13,15,16,18,19,20,22,23,25,26,28,29,30,31,32,33,34,35,36,38,39,40,41,42,43,45,46,47,48,49,0,3,4,7,9,11,12,14,15,17,21,22,24,26,27,33,36,37,39,40,43,44,46,48,0,2,3,4,15,16,22,26,33,36,39,40,43,46,48],"categories_nodes":[0,5,6],"categories_segments":[0,39,63],"categories_sizes":[39,24,15],"default_left":[1,0,0,0,0,1,1,0,0,0,0,0,0,0,0],"id":75,"left_children":[1,3,5,7,9,11,13,-1,-1,-1,-1,-1,-1,-1,-1],"loss_changes":[2.2031367E4,1.8319662E4,3.6528516E4,1.2674779E4,1.5719904E4,3.445591E4,3.1582035E4,0E0,0E0,0E0,0E0,0E0,0E0,0E0,0E0],"parents":[2147483647,0,0,1,1,2,2,3,3,4,4,5,5,6,6],"right_children":[2,4,6,8,10,12,14,-1,-1,-1,-1,-1,-1,-1,-1],"split_conditions":[1E-45,1E0,3.4E1,9.2E1,1.1E2,1E-45,1E-45,-4.936817E-2,-5.442427E-1,1.1135092E-1,-5.828029E-2,1.3896258E-1,-8.724108E-3,-3.0988887E-2,-1.9139309E-1],